%YAML:1.0
my_svm: !!opencv-ml-svm
   svm_type: NU_SVC
   kernel: { type:POLY, degree:3., gamma:3.1250000000000000e-002,
       coef0:0. }
   nu: 6.9999999999999996e-001
   term_criteria: { epsilon:1.1920928955078125e-007, iterations:1000 }
   var_all: 4
   var_count: 4
   class_count: 3
   class_labels: !!opencv-matrix
      rows: 1
      cols: 3
      dt: i
      data: [ 0, 1, 2 ]
   sv_total: 297
   support_vectors:
      - [ 131., 40., 244., 166. ]
      - [ 110., 27., 243., 170. ]
      - [ 103., 27., 249., 162. ]
      - [ 147., 57., 246., 167. ]
      - [ 131., 51., 250., 180. ]
      - [ 106., 26., 224., 176. ]
      - [ 89., 16., 228., 181. ]
      - [ 91., 21., 230., 185. ]
      - [ 86., 30., 232., 192. ]
      - [ 87., 31., 230., 187. ]
      - [ 106., 57., 235., 174. ]
      - [ 138., 54., 243., 184. ]
      - [ 95., 32., 234., 191. ]
      - [ 78., 29., 231., 188. ]
      - [ 135., 73., 228., 232. ]
      - [ 112., 38., 210., 194. ]
      - [ 121., 44., 215., 191. ]
      - [ 113., 41., 239., 189. ]
      - [ 116., 45., 237., 182. ]
      - [ 148., 60., 217., 220. ]
      - [ 110., 38., 209., 215. ]
      - [ 121., 51., 216., 222. ]
      - [ 99., 37., 231., 208. ]
      - [ 106., 36., 233., 196. ]
      - [ 94., 30., 229., 212. ]
      - [ 81., 40., 220., 214. ]
      - [ 126., 52., 248., 208. ]
      - [ 94., 45., 243., 210. ]
      - [ 132., 67., 238., 224. ]
      - [ 121., 57., 225., 216. ]
      - [ 96., 27., 230., 201. ]
      - [ 98., 38., 232., 212. ]
      - [ 102., 38., 223., 225. ]
      - [ 98., 37., 226., 213. ]
      - [ 111., 38., 216., 204. ]
      - [ 104., 34., 205., 209. ]
      - [ 122., 45., 231., 214. ]
      - [ 108., 39., 233., 210. ]
      - [ 96., 15., 252., 168. ]
      - [ 88., 14., 244., 182. ]
      - [ 84., 10., 252., 170. ]
      - [ 81., 12., 252., 178. ]
      - [ 88., 16., 236., 195. ]
      - [ 99., 27., 251., 200. ]
      - [ 86., 17., 250., 191. ]
      - [ 93., 16., 250., 172. ]
      - [ 114., 37., 236., 181. ]
      - [ 119., 43., 237., 187. ]
      - [ 130., 56., 244., 206. ]
      - [ 142., 70., 233., 210. ]
      - [ 114., 40., 251., 201. ]
      - [ 125., 55., 244., 218. ]
      - [ 135., 62., 230., 216. ]
      - [ 126., 37., 244., 198. ]
      - [ 124., 40., 250., 214. ]
      - [ 124., 52., 229., 218. ]
      - [ 134., 66., 234., 220. ]
      - [ 96., 27., 233., 210. ]
      - [ 91., 29., 230., 225. ]
      - [ 98., 5., 253., 153. ]
      - [ 94., 11., 232., 159. ]
      - [ 86., 10., 225., 176. ]
      - [ 78., 4., 235., 171. ]
      - [ 87., 13., 245., 184. ]
      - [ 116., 32., 230., 178. ]
      - [ 119., 52., 246., 210. ]
      - [ 97., 18., 234., 192. ]
      - [ 83., 15., 228., 178. ]
      - [ 92., 15., 216., 180. ]
      - [ 101., 19., 224., 186. ]
      - [ 89., 11., 213., 165. ]
      - [ 84., 9., 203., 165. ]
      - [ 81., 11., 203., 182. ]
      - [ 89., 12., 216., 182. ]
      - [ 81., 10., 216., 182. ]
      - [ 118., 33., 219., 208. ]
      - [ 103., 33., 212., 202. ]
      - [ 105., 31., 203., 190. ]
      - [ 93., 4., 226., 157. ]
      - [ 89., 3., 252., 148. ]
      - [ 83., 1., 246., 132. ]
      - [ 81., 0., 244., 136. ]
      - [ 81., 1., 230., 139. ]
      - [ 108., 23., 235., 189. ]
      - [ 111., 25., 236., 184. ]
      - [ 109., 20., 228., 175. ]
      - [ 119., 24., 228., 180. ]
      - [ 113., 30., 208., 182. ]
      - [ 129., 41., 222., 202. ]
      - [ 128., 47., 226., 217. ]
      - [ 131., 52., 225., 222. ]
      - [ 108., 29., 219., 206. ]
      - [ 107., 22., 218., 196. ]
      - [ 135., 58., 242., 217. ]
      - [ 122., 55., 247., 214. ]
      - [ 90., 18., 250., 189. ]
      - [ 88., 15., 248., 196. ]
      - [ 110., 25., 252., 184. ]
      - [ 102., 15., 253., 176. ]
      - [ 89., 10., 251., 158. ]
      - [ 101., 22., 253., 190. ]
      - [ 96., 21., 245., 180. ]
      - [ 115., 28., 253., 199. ]
      - [ 83., 8., 241., 179. ]
      - [ 72., 6., 230., 162. ]
      - [ 86., 4., 243., 168. ]
      - [ 106., 11., 249., 166. ]
      - [ 171., 93., 232., 175. ]
      - [ 170., 85., 221., 179. ]
      - [ 168., 83., 227., 181. ]
      - [ 146., 29., 233., 144. ]
      - [ 140., 24., 232., 141. ]
      - [ 142., 26., 234., 144. ]
      - [ 140., 24., 232., 141. ]
      - [ 176., 102., 230., 170. ]
      - [ 116., 12., 232., 137. ]
      - [ 117., 12., 233., 137. ]
      - [ 116., 13., 235., 144. ]
      - [ 117., 12., 230., 137. ]
      - [ 129., 43., 250., 181. ]
      - [ 128., 40., 250., 182. ]
      - [ 126., 43., 251., 182. ]
      - [ 129., 57., 244., 191. ]
      - [ 137., 57., 242., 190. ]
      - [ 133., 56., 241., 191. ]
      - [ 144., 54., 239., 188. ]
      - [ 143., 55., 240., 189. ]
      - [ 133., 57., 244., 190. ]
      - [ 127., 40., 244., 183. ]
      - [ 124., 42., 241., 183. ]
      - [ 123., 52., 239., 186. ]
      - [ 126., 33., 224., 138. ]
      - [ 129., 31., 243., 148. ]
      - [ 119., 43., 233., 155. ]
      - [ 138., 48., 237., 160. ]
      - [ 128., 42., 236., 164. ]
      - [ 152., 54., 243., 174. ]
      - [ 138., 52., 239., 170. ]
      - [ 144., 53., 239., 170. ]
      - [ 136., 58., 239., 168. ]
      - [ 142., 48., 248., 165. ]
      - [ 138., 53., 250., 167. ]
      - [ 107., 17., 243., 165. ]
      - [ 122., 27., 247., 180. ]
      - [ 116., 9., 235., 155. ]
      - [ 117., 12., 238., 159. ]
      - [ 110., 10., 222., 144. ]
      - [ 113., 11., 226., 146. ]
      - [ 111., 15., 224., 142. ]
      - [ 121., 39., 228., 141. ]
      - [ 116., 12., 229., 150. ]
      - [ 116., 17., 230., 149. ]
      - [ 117., 18., 237., 171. ]
      - [ 121., 19., 237., 171. ]
      - [ 120., 16., 235., 171. ]
      - [ 118., 18., 236., 170. ]
      - [ 128., 39., 225., 191. ]
      - [ 120., 30., 238., 189. ]
      - [ 131., 38., 235., 192. ]
      - [ 133., 39., 221., 195. ]
      - [ 132., 38., 232., 191. ]
      - [ 113., 19., 214., 158. ]
      - [ 113., 18., 220., 164. ]
      - [ 112., 18., 221., 156. ]
      - [ 126., 29., 235., 180. ]
      - [ 132., 30., 235., 184. ]
      - [ 123., 31., 238., 179. ]
      - [ 131., 32., 235., 186. ]
      - [ 100., 25., 231., 204. ]
      - [ 104., 26., 233., 207. ]
      - [ 96., 26., 231., 204. ]
      - [ 108., 27., 231., 205. ]
      - [ 102., 25., 231., 205. ]
      - [ 120., 38., 238., 199. ]
      - [ 111., 12., 227., 171. ]
      - [ 106., 11., 227., 162. ]
      - [ 107., 11., 226., 165. ]
      - [ 109., 12., 224., 167. ]
      - [ 88., 26., 233., 190. ]
      - [ 84., 34., 235., 195. ]
      - [ 81., 29., 237., 194. ]
      - [ 83., 33., 233., 198. ]
      - [ 88., 45., 225., 186. ]
      - [ 97., 47., 231., 192. ]
      - [ 111., 50., 229., 188. ]
      - [ 101., 51., 234., 194. ]
      - [ 110., 49., 233., 190. ]
      - [ 120., 39., 241., 199. ]
      - [ 123., 43., 229., 204. ]
      - [ 103., 25., 230., 195. ]
      - [ 128., 33., 247., 184. ]
      - [ 118., 26., 250., 141. ]
      - [ 127., 19., 253., 151. ]
      - [ 120., 17., 251., 149. ]
      - [ 122., 19., 251., 150. ]
      - [ 127., 21., 240., 168. ]
      - [ 147., 76., 229., 224. ]
      - [ 146., 75., 222., 219. ]
      - [ 145., 76., 228., 220. ]
      - [ 123., 42., 207., 201. ]
      - [ 126., 37., 216., 197. ]
      - [ 126., 38., 217., 194. ]
      - [ 129., 41., 221., 197. ]
      - [ 121., 38., 217., 198. ]
      - [ 93., 28., 212., 109. ]
      - [ 100., 33., 229., 117. ]
      - [ 93., 29., 227., 111. ]
      - [ 108., 40., 205., 115. ]
      - [ 115., 46., 216., 114. ]
      - [ 111., 34., 206., 114. ]
      - [ 104., 50., 189., 135. ]
      - [ 112., 60., 193., 138. ]
      - [ 109., 60., 196., 138. ]
      - [ 105., 57., 198., 128. ]
      - [ 89., 46., 193., 132. ]
      - [ 112., 52., 205., 135. ]
      - [ 115., 64., 207., 134. ]
      - [ 102., 68., 198., 133. ]
      - [ 109., 73., 188., 133. ]
      - [ 90., 59., 193., 131. ]
      - [ 102., 31., 213., 113. ]
      - [ 141., 77., 178., 135. ]
      - [ 127., 74., 177., 141. ]
      - [ 137., 74., 180., 135. ]
      - [ 122., 71., 183., 147. ]
      - [ 125., 78., 190., 143. ]
      - [ 117., 69., 196., 156. ]
      - [ 120., 70., 184., 145. ]
      - [ 117., 60., 194., 153. ]
      - [ 122., 63., 201., 163. ]
      - [ 109., 59., 197., 152. ]
      - [ 118., 62., 199., 157. ]
      - [ 120., 62., 195., 160. ]
      - [ 112., 60., 194., 158. ]
      - [ 116., 40., 199., 138. ]
      - [ 143., 59., 211., 147. ]
      - [ 108., 33., 194., 135. ]
      - [ 111., 27., 203., 134. ]
      - [ 130., 30., 209., 133. ]
      - [ 116., 17., 189., 127. ]
      - [ 117., 18., 191., 128. ]
      - [ 124., 34., 213., 116. ]
      - [ 126., 31., 189., 124. ]
      - [ 111., 23., 206., 120. ]
      - [ 115., 22., 235., 141. ]
      - [ 120., 29., 235., 149. ]
      - [ 119., 26., 220., 138. ]
      - [ 120., 22., 226., 135. ]
      - [ 124., 31., 228., 148. ]
      - [ 119., 11., 216., 127. ]
      - [ 105., 7., 209., 124. ]
      - [ 107., 8., 210., 124. ]
      - [ 106., 9., 210., 120. ]
      - [ 108., 10., 211., 123. ]
      - [ 121., 15., 224., 139. ]
      - [ 119., 15., 224., 141. ]
      - [ 104., 26., 210., 163. ]
      - [ 127., 37., 219., 156. ]
      - [ 124., 38., 212., 158. ]
      - [ 99., 24., 197., 157. ]
      - [ 105., 28., 198., 158. ]
      - [ 74., 32., 189., 148. ]
      - [ 91., 46., 199., 164. ]
      - [ 82., 28., 201., 156. ]
      - [ 131., 58., 226., 176. ]
      - [ 131., 58., 219., 177. ]
      - [ 128., 57., 215., 176. ]
      - [ 137., 60., 224., 178. ]
      - [ 99., 26., 180., 161. ]
      - [ 93., 25., 184., 159. ]
      - [ 94., 25., 187., 158. ]
      - [ 136., 47., 186., 171. ]
      - [ 140., 44., 209., 170. ]
      - [ 117., 45., 210., 172. ]
      - [ 131., 39., 210., 159. ]
      - [ 120., 40., 200., 159. ]
      - [ 111., 38., 205., 158. ]
      - [ 99., 57., 198., 145. ]
      - [ 90., 52., 208., 144. ]
      - [ 90., 51., 208., 142. ]
      - [ 95., 42., 206., 143. ]
      - [ 99., 44., 208., 143. ]
      - [ 100., 61., 195., 145. ]
      - [ 101., 60., 205., 148. ]
      - [ 117., 35., 200., 128. ]
      - [ 101., 38., 195., 173. ]
      - [ 90., 44., 229., 202. ]
      - [ 87., 42., 204., 199. ]
      - [ 99., 41., 212., 188. ]
      - [ 95., 38., 211., 199. ]
      - [ 70., 24., 194., 183. ]
      - [ 63., 32., 187., 181. ]
      - [ 97., 46., 206., 205. ]
      - [ 62., 16., 219., 186. ]
      - [ 89., 26., 194., 195. ]
      - [ 111., 39., 193., 196. ]
      - [ 102., 53., 219., 201. ]
   decision_functions:
      -
         sv_count: 168
         rho: 7.0311889159314089e-001
         alpha: [ 3.3710854631977143e-011, 3.3710854631977143e-011,
             3.3710854631977143e-011, 3.3710854631977143e-011,
             3.3710854631977143e-011, 3.3710854631977143e-011,
             3.3710854631977143e-011, 3.3710854631977143e-011,
             3.3710854631977143e-011, 3.3710854631977143e-011,
             3.3710854631977143e-011, 3.3710854631977143e-011,
             3.3710854631977143e-011, 3.3710854631977143e-011,
             3.3710854631977143e-011, 3.3710854631977143e-011,
             3.3710854631977143e-011, 3.3710854631977143e-011,
             3.3710854631977143e-011, 3.3710854631977143e-011,
             3.3710854631977143e-011, 3.3710854631977143e-011,
             3.3710854631977143e-011, 3.3710854631977143e-011,
             3.3710854631977143e-011, 3.3710854631977143e-011,
             3.3710854631977143e-011, 3.3710854631977143e-011,
             3.3710854631977143e-011, 3.3710854631977143e-011,
             3.3710854631977143e-011, 3.3710854631977143e-011,
             3.3710854631977143e-011, 3.3710854631977143e-011,
             3.3710854631977143e-011, 3.3710854631977143e-011,
             3.3710854631977143e-011, 3.3710854631977143e-011,
             3.3710854631977143e-011, 3.3710854631977143e-011,
             3.3710854631977143e-011, 3.3710854631977143e-011,
             3.3710854631977143e-011, 3.3710854631977143e-011,
             3.3710854631977143e-011, 3.3710854631977143e-011,
             3.3710854631977143e-011, 3.3710854631977143e-011,
             3.3710854631977143e-011, 3.3710854631977143e-011,
             3.3710854631977143e-011, 3.3710854631977143e-011,
             3.3710854631977143e-011, 3.3710854631977143e-011,
             3.3710854631977143e-011, 3.3710854631977143e-011,
             3.3710854631977143e-011, 3.3710854631977143e-011,
             3.3710854631977143e-011, 3.3710854631977143e-011,
             3.3710854631977143e-011, 3.3710854631977143e-011,
             3.3710854631977143e-011, 3.3710854631977143e-011,
             3.3710854631977143e-011, 3.3710854631977143e-011,
             3.3710854631977143e-011, 3.3710854631977143e-011,
             3.3710854631977143e-011, 3.3710854631977143e-011,
             3.3710854631977143e-011, 3.3710854631977143e-011,
             3.3710854631977143e-011, 3.3710854631977143e-011,
             3.3710854631977143e-011, 3.3710854631977143e-011,
             3.3710854631977143e-011, 3.3710854631977143e-011,
             3.3710854631977143e-011, 3.3710854631977143e-011,
             3.3710854631977143e-011, 3.3710854631977143e-011,
             3.3710854631977143e-011, 3.3710854631977143e-011,
             -3.3710854631977143e-011, -3.3710854631977143e-011,
             -3.3710854631977143e-011, -3.3710854631977143e-011,
             -3.3710854631977143e-011, -3.3710854631977143e-011,
             -3.3710854631977143e-011, -3.3710854631977143e-011,
             -3.3710854631977143e-011, -3.3710854631977143e-011,
             -3.3710854631977143e-011, -3.3710854631977143e-011,
             -3.3710854631977143e-011, -3.3710854631977143e-011,
             -3.3710854631977143e-011, -3.3710854631977143e-011,
             -3.3710854631977143e-011, -3.3710854631977143e-011,
             -3.3710854631977143e-011, -3.3710854631977143e-011,
             -3.3710854631977143e-011, -3.3710854631977143e-011,
             -3.3710854631977143e-011, -3.3710854631977143e-011,
             -3.3710854631977143e-011, -3.3710854631977143e-011,
             -3.3710854631977143e-011, -3.3710854631977143e-011,
             -3.3710854631977143e-011, -3.3710854631977143e-011,
             -3.3710854631977143e-011, -3.3710854631977143e-011,
             -3.3710854631977143e-011, -3.3710854631977143e-011,
             -3.3710854631977143e-011, -3.3710854631977143e-011,
             -3.3710854631977143e-011, -3.3710854631977143e-011,
             -3.3710854631977143e-011, -3.3710854631977143e-011,
             -3.3710854631977143e-011, -3.3710854631977143e-011,
             -3.3710854631977143e-011, -3.3710854631977143e-011,
             -3.3710854631977143e-011, -3.3710854631977143e-011,
             -3.3710854631977143e-011, -3.3710854631977143e-011,
             -3.3710854631977143e-011, -3.3710854631977143e-011,
             -3.3710854631977143e-011, -3.3710854631977143e-011,
             -3.3710854631977143e-011, -3.3710854631977143e-011,
             -3.3710854631977143e-011, -3.3710854631977143e-011,
             -3.3710854631977143e-011, -3.3710854631977143e-011,
             -3.3710854631977143e-011, -3.3710854631977143e-011,
             -3.3710854631977143e-011, -3.3710854631977143e-011,
             -3.3710854631977143e-011, -3.3710854631977143e-011,
             -3.3710854631977143e-011, -3.3710854631977143e-011,
             -3.3710854631977143e-011, -3.3710854631977143e-011,
             -3.3710854631977143e-011, -3.3710854631977143e-011,
             -3.3710854631977143e-011, -3.3710854631977143e-011,
             -3.3710854631977143e-011, -3.3710854631977143e-011,
             -3.3710854631977143e-011, -3.3710854631977143e-011,
             -3.3710854631977143e-011, -3.3710854631977143e-011,
             -3.3710854631977143e-011, -3.3710854631977143e-011,
             -3.3710854631977143e-011, -3.3710854631977143e-011,
             -3.3710854631977143e-011, -3.3710854631977143e-011 ]
         index: [ 0, 1, 2, 3, 4, 5, 6, 7, 9, 10, 11, 12, 14, 15, 16, 17,
             18, 19, 23, 26, 28, 29, 34, 36, 38, 39, 40, 45, 46, 47, 48,
             49, 50, 51, 52, 53, 54, 55, 56, 59, 60, 61, 62, 64, 65, 66,
             67, 68, 69, 70, 71, 72, 73, 74, 75, 76, 77, 78, 79, 80, 81,
             82, 83, 84, 85, 86, 87, 88, 89, 90, 91, 92, 93, 94, 97, 98,
             99, 100, 101, 102, 103, 104, 105, 106, 115, 116, 117, 118,
             119, 120, 121, 122, 123, 124, 125, 126, 127, 128, 129, 130,
             132, 133, 135, 137, 139, 141, 142, 143, 144, 145, 146, 147,
             148, 149, 150, 151, 152, 153, 154, 155, 156, 157, 158, 159,
             160, 161, 162, 163, 164, 165, 166, 167, 168, 169, 170, 171,
             172, 173, 174, 175, 176, 177, 178, 179, 180, 181, 182, 183,
             184, 185, 186, 187, 188, 189, 190, 191, 192, 193, 194, 195,
             196, 197, 198, 199, 200, 201, 202, 203 ]
      -
         sv_count: 186
         rho: 2.1927841407654269e+000
         alpha: [ 2.8389580195910001e-012, 2.8389580195910001e-012,
             2.8389580195910001e-012, 2.8389580195910001e-012,
             2.8389580195910001e-012, 2.8389580195910001e-012,
             2.8389580195910001e-012, 2.8389580195910001e-012,
             2.8389580195910001e-012, 2.8389580195910001e-012,
             2.8389580195910001e-012, 2.8389580195910001e-012,
             2.8389580195910001e-012, 2.8389580195910001e-012,
             2.8389580195910001e-012, 2.8389580195910001e-012,
             2.8389580195910001e-012, 2.8389580195910001e-012,
             2.8389580195910001e-012, 2.8389580195910001e-012,
             2.8389580195910001e-012, 2.8389580195910001e-012,
             2.8389580195910001e-012, 2.8389580195910001e-012,
             2.8389580195910001e-012, 2.8389580195910001e-012,
             2.8389580195910001e-012, 2.8389580195910001e-012,
             2.8389580195910001e-012, 2.8389580195910001e-012,
             2.8389580195910001e-012, 2.8389580195910001e-012,
             2.8389580195910001e-012, 2.8389580195910001e-012,
             2.8389580195910001e-012, 2.8389580195910001e-012,
             2.8389580195910001e-012, 2.8389580195910001e-012,
             2.8389580195910001e-012, 2.8389580195910001e-012,
             2.8389580195910001e-012, 2.8389580195910001e-012,
             2.8389580195910001e-012, 2.8389580195910001e-012,
             2.8389580195910001e-012, 2.8389580195910001e-012,
             2.8389580195910001e-012, 2.8389580195910001e-012,
             2.8389580195910001e-012, 1.4194790097954193e-013,
             2.8389580195910001e-012, 2.8389580195910001e-012,
             2.8389580195910001e-012, 2.8389580195910001e-012,
             2.8389580195910001e-012, 2.8389580195910001e-012,
             2.8389580195910001e-012, 2.8389580195910001e-012,
             2.8389580195910001e-012, 2.8389580195910001e-012,
             2.8389580195910001e-012, 2.8389580195910001e-012,
             2.8389580195910001e-012, 2.8389580195910001e-012,
             2.8389580195910001e-012, 2.8389580195910001e-012,
             2.8389580195910001e-012, 2.8389580195910001e-012,
             2.8389580195910001e-012, 2.8389580195910001e-012,
             2.8389580195910001e-012, 2.8389580195910001e-012,
             2.8389580195910001e-012, 2.8389580195910001e-012,
             2.8389580195910001e-012, 2.8389580195910001e-012,
             2.8389580195910001e-012, 2.8389580195910001e-012,
             2.8389580195910001e-012, 2.8389580195910001e-012,
             2.8389580195910001e-012, 2.8389580195910001e-012,
             2.8389580195910001e-012, 2.8389580195910001e-012,
             2.8389580195910001e-012, 2.8389580195910001e-012,
             2.8389580195910001e-012, 2.8389580195910001e-012,
             2.8389580195910001e-012, 2.8389580195910001e-012,
             2.8389580195910001e-012, 2.8389580195910001e-012,
             2.8389580195910001e-012, -2.8389580195910001e-012,
             -2.8389580195910001e-012, -2.8389580195910001e-012,
             -2.8389580195910001e-012, -2.8389580195910001e-012,
             -2.8389580195910001e-012, -2.8389580195910001e-012,
             -2.8389580195910001e-012, -2.8389580195910001e-012,
             -2.8389580195910001e-012, -2.8389580195910001e-012,
             -2.8389580195910001e-012, -2.8389580195910001e-012,
             -2.8389580195910001e-012, -2.8389580195910001e-012,
             -2.8389580195910001e-012, -2.8389580195910001e-012,
             -1.4194790097954193e-013, -2.8389580195910001e-012,
             -2.8389580195910001e-012, -2.8389580195910001e-012,
             -2.8389580195910001e-012, -2.8389580195910001e-012,
             -2.8389580195910001e-012, -2.8389580195910001e-012,
             -2.8389580195910001e-012, -2.8389580195910001e-012,
             -2.8389580195910001e-012, -2.8389580195910001e-012,
             -2.8389580195910001e-012, -2.8389580195910001e-012,
             -2.8389580195910001e-012, -2.8389580195910001e-012,
             -2.8389580195910001e-012, -2.8389580195910001e-012,
             -2.8389580195910001e-012, -2.8389580195910001e-012,
             -2.8389580195910001e-012, -2.8389580195910001e-012,
             -2.8389580195910001e-012, -2.8389580195910001e-012,
             -2.8389580195910001e-012, -2.8389580195910001e-012,
             -2.8389580195910001e-012, -2.8389580195910001e-012,
             -2.8389580195910001e-012, -2.8389580195910001e-012,
             -2.8389580195910001e-012, -2.8389580195910001e-012,
             -2.8389580195910001e-012, -2.8389580195910001e-012,
             -2.8389580195910001e-012, -2.8389580195910001e-012,
             -2.8389580195910001e-012, -2.8389580195910001e-012,
             -2.8389580195910001e-012, -2.8389580195910001e-012,
             -2.8389580195910001e-012, -2.8389580195910001e-012,
             -2.8389580195910001e-012, -2.8389580195910001e-012,
             -2.8389580195910001e-012, -2.8389580195910001e-012,
             -2.8389580195910001e-012, -2.8389580195910001e-012,
             -2.8389580195910001e-012, -2.8389580195910001e-012,
             -2.8389580195910001e-012, -2.8389580195910001e-012,
             -2.8389580195910001e-012, -2.8389580195910001e-012,
             -2.8389580195910001e-012, -2.8389580195910001e-012,
             -2.8389580195910001e-012, -2.8389580195910001e-012,
             -2.8389580195910001e-012, -2.8389580195910001e-012,
             -2.8389580195910001e-012, -2.8389580195910001e-012,
             -2.8389580195910001e-012, -2.8389580195910001e-012,
             -2.8389580195910001e-012, -2.8389580195910001e-012,
             -2.8389580195910001e-012, -2.8389580195910001e-012,
             -2.8389580195910001e-012, -2.8389580195910001e-012,
             -2.8389580195910001e-012, -2.8389580195910001e-012,
             -2.8389580195910001e-012, -2.8389580195910001e-012,
             -2.8389580195910001e-012, -2.8389580195910001e-012 ]
         index: [ 0, 1, 2, 3, 4, 5, 6, 7, 8, 9, 10, 11, 12, 13, 15, 16,
             17, 18, 19, 20, 21, 22, 23, 24, 25, 27, 29, 30, 31, 32, 33,
             34, 35, 36, 37, 38, 39, 40, 41, 42, 43, 44, 45, 46, 47, 49,
             53, 55, 57, 58, 59, 60, 61, 62, 63, 64, 66, 67, 68, 69, 70,
             71, 72, 73, 74, 75, 76, 77, 78, 79, 80, 81, 82, 83, 84, 85,
             86, 87, 88, 89, 91, 92, 95, 96, 97, 98, 99, 100, 101, 103,
             104, 105, 106, 204, 205, 206, 207, 208, 209, 210, 211, 212,
             213, 214, 215, 216, 217, 218, 219, 220, 221, 222, 223, 224,
             225, 226, 227, 228, 229, 230, 231, 232, 233, 234, 235, 236,
             237, 238, 239, 240, 241, 242, 243, 244, 245, 246, 247, 248,
             249, 250, 251, 252, 253, 254, 255, 256, 257, 258, 259, 260,
             261, 262, 263, 264, 265, 266, 267, 268, 269, 270, 271, 272,
             273, 274, 275, 276, 277, 278, 279, 280, 281, 282, 283, 284,
             285, 286, 287, 288, 289, 290, 291, 292, 293, 294, 295, 296 ]
      -
         sv_count: 172
         rho: 2.6242696115699951e+000
         alpha: [ 3.7612333609391094e-012, 3.7612333609391094e-012,
             3.7612333609391094e-012, 3.7612333609391094e-012,
             3.7612333609391094e-012, 3.7612333609391094e-012,
             3.7612333609391094e-012, 3.7612333609391094e-012,
             3.7612333609391094e-012, 3.7612333609391094e-012,
             3.7612333609391094e-012, 3.7612333609391094e-012,
             3.7612333609391094e-012, 3.7612333609391094e-012,
             3.7612333609391094e-012, 3.7612333609391094e-012,
             3.7612333609391094e-012, 3.7612333609391094e-012,
             3.7612333609391094e-012, 3.7612333609391094e-012,
             3.7612333609391094e-012, 3.7612333609391094e-012,
             3.7612333609391094e-012, 3.7612333609391094e-012,
             3.7612333609391094e-012, 3.7612333609391094e-012,
             3.7612333609391094e-012, 3.7612333609391094e-012,
             3.7612333609391094e-012, 3.7612333609391094e-012,
             3.7612333609391094e-012, 3.7612333609391094e-012,
             3.7612333609391094e-012, 3.7612333609391094e-012,
             3.7612333609391094e-012, 3.7612333609391094e-012,
             3.7612333609391094e-012, 3.7612333609391094e-012,
             3.7612333609391094e-012, 3.7612333609391094e-012,
             3.7612333609391094e-012, 3.7612333609391094e-012,
             3.7612333609391094e-012, 3.7612333609391094e-012,
             3.7612333609391094e-012, 3.7612333609391094e-012,
             3.7612333609391094e-012, 3.7612333609391094e-012,
             3.7612333609391094e-012, 3.7612333609391094e-012,
             3.7612333609391094e-012, 3.7612333609391094e-012,
             3.7612333609391094e-012, 3.7612333609391094e-012,
             3.7612333609391094e-012, 3.7612333609391094e-012,
             3.7612333609391094e-012, 3.7612333609391094e-012,
             3.7612333609391094e-012, 3.7612333609391094e-012,
             3.7612333609391094e-012, 3.7612333609391094e-012,
             3.7612333609391094e-012, 3.7612333609391094e-012,
             3.7612333609391094e-012, 3.7612333609391094e-012,
             3.7612333609391094e-012, 3.7612333609391094e-012,
             3.7612333609391094e-012, 3.7612333609391094e-012,
             3.7612333609391094e-012, 3.7612333609391094e-012,
             2.8209250207043321e-012, 3.7612333609391094e-012,
             3.7612333609391094e-012, 3.7612333609391094e-012,
             3.7612333609391094e-012, 3.7612333609391094e-012,
             3.7612333609391094e-012, 3.7612333609391094e-012,
             3.7612333609391094e-012, 3.7612333609391094e-012,
             3.7612333609391094e-012, 3.7612333609391094e-012,
             3.7612333609391094e-012, 3.7612333609391094e-012,
             -3.7612333609391094e-012, -3.7612333609391094e-012,
             -3.7612333609391094e-012, -3.7612333609391094e-012,
             -3.7612333609391094e-012, -3.7612333609391094e-012,
             -3.7612333609391094e-012, -3.7612333609391094e-012,
             -3.7612333609391094e-012, -3.7612333609391094e-012,
             -3.7612333609391094e-012, -3.7612333609391094e-012,
             -3.7612333609391094e-012, -3.7612333609391094e-012,
             -3.7612333609391094e-012, -3.7612333609391094e-012,
             -3.7612333609391094e-012, -3.7612333609391094e-012,
             -3.7612333609391094e-012, -3.7612333609391094e-012,
             -3.7612333609391094e-012, -3.7612333609391094e-012,
             -3.7612333609391094e-012, -3.7612333609391094e-012,
             -3.7612333609391094e-012, -3.7612333609391094e-012,
             -3.7612333609391094e-012, -3.7612333609391094e-012,
             -3.7612333609391094e-012, -3.7612333609391094e-012,
             -3.7612333609391094e-012, -3.7612333609391094e-012,
             -2.8209250207043321e-012, -3.7612333609391094e-012,
             -3.7612333609391094e-012, -3.7612333609391094e-012,
             -3.7612333609391094e-012, -3.7612333609391094e-012,
             -3.7612333609391094e-012, -3.7612333609391094e-012,
             -3.7612333609391094e-012, -3.7612333609391094e-012,
             -3.7612333609391094e-012, -3.7612333609391094e-012,
             -3.7612333609391094e-012, -3.7612333609391094e-012,
             -3.7612333609391094e-012, -3.7612333609391094e-012,
             -3.7612333609391094e-012, -3.7612333609391094e-012,
             -3.7612333609391094e-012, -3.7612333609391094e-012,
             -3.7612333609391094e-012, -3.7612333609391094e-012,
             -3.7612333609391094e-012, -3.7612333609391094e-012,
             -3.7612333609391094e-012, -3.7612333609391094e-012,
             -3.7612333609391094e-012, -3.7612333609391094e-012,
             -3.7612333609391094e-012, -3.7612333609391094e-012,
             -3.7612333609391094e-012, -3.7612333609391094e-012,
             -3.7612333609391094e-012, -3.7612333609391094e-012,
             -3.7612333609391094e-012, -3.7612333609391094e-012,
             -3.7612333609391094e-012, -3.7612333609391094e-012,
             -3.7612333609391094e-012, -3.7612333609391094e-012,
             -3.7612333609391094e-012, -3.7612333609391094e-012,
             -3.7612333609391094e-012, -3.7612333609391094e-012,
             -3.7612333609391094e-012, -3.7612333609391094e-012,
             -3.7612333609391094e-012, -3.7612333609391094e-012,
             -3.7612333609391094e-012, -3.7612333609391094e-012,
             -3.7612333609391094e-012, -3.7612333609391094e-012,
             -3.7612333609391094e-012, -3.7612333609391094e-012 ]
         index: [ 107, 108, 109, 110, 111, 112, 113, 114, 115, 116, 117,
             118, 119, 128, 129, 130, 131, 132, 133, 134, 135, 136, 137,
             138, 139, 140, 141, 142, 143, 144, 145, 146, 147, 148, 149,
             150, 151, 152, 153, 154, 155, 156, 157, 158, 159, 160, 161,
             162, 163, 164, 165, 166, 167, 168, 169, 170, 171, 172, 173,
             174, 175, 176, 177, 178, 179, 180, 181, 182, 183, 184, 185,
             186, 187, 188, 189, 190, 191, 192, 193, 194, 195, 199, 200,
             201, 202, 203, 205, 206, 207, 208, 209, 211, 212, 213, 215,
             216, 217, 220, 221, 222, 223, 224, 225, 226, 227, 228, 229,
             230, 231, 232, 233, 234, 235, 236, 237, 238, 240, 241, 242,
             243, 244, 245, 246, 247, 248, 249, 250, 251, 252, 253, 254,
             255, 256, 257, 258, 259, 260, 262, 263, 264, 265, 266, 267,
             268, 269, 270, 271, 272, 273, 274, 275, 276, 277, 278, 279,
             280, 281, 282, 283, 284, 285, 286, 287, 288, 289, 290, 291,
             292, 293, 294, 295, 296 ]
