%YAML:1.0
my_svm: !!opencv-ml-svm
   svm_type: NU_SVC
   kernel: { type:POLY, degree:3., gamma:3.1250000000000000e-002,
       coef0:0. }
   nu: 1.0000000000000001e-001
   term_criteria: { epsilon:1.1920928955078125e-007, iterations:1000 }
   var_all: 4
   var_count: 4
   class_count: 3
   class_labels: !!opencv-matrix
      rows: 1
      cols: 3
      dt: i
      data: [ 0, 1, 2 ]
   sv_total: 86
   support_vectors:
      - [ 131., 40., 244., 166. ]
      - [ 110., 27., 243., 170. ]
      - [ 147., 57., 246., 167. ]
      - [ 131., 51., 250., 180. ]
      - [ 106., 26., 224., 176. ]
      - [ 89., 16., 228., 181. ]
      - [ 91., 21., 230., 185. ]
      - [ 86., 30., 232., 192. ]
      - [ 87., 31., 230., 187. ]
      - [ 106., 57., 235., 174. ]
      - [ 138., 54., 243., 184. ]
      - [ 78., 29., 231., 188. ]
      - [ 109., 61., 240., 224. ]
      - [ 126., 73., 238., 231. ]
      - [ 112., 38., 210., 194. ]
      - [ 121., 44., 215., 191. ]
      - [ 148., 60., 217., 220. ]
      - [ 81., 40., 220., 214. ]
      - [ 94., 45., 243., 210. ]
      - [ 81., 12., 252., 178. ]
      - [ 114., 54., 247., 235. ]
      - [ 91., 29., 230., 225. ]
      - [ 78., 4., 235., 171. ]
      - [ 89., 11., 213., 165. ]
      - [ 84., 9., 203., 165. ]
      - [ 105., 31., 203., 190. ]
      - [ 83., 1., 246., 132. ]
      - [ 81., 0., 244., 136. ]
      - [ 81., 1., 230., 139. ]
      - [ 113., 30., 208., 182. ]
      - [ 170., 85., 221., 179. ]
      - [ 142., 26., 234., 144. ]
      - [ 140., 24., 232., 141. ]
      - [ 177., 105., 241., 177. ]
      - [ 174., 106., 239., 178. ]
      - [ 117., 12., 230., 137. ]
      - [ 129., 57., 244., 191. ]
      - [ 133., 57., 244., 190. ]
      - [ 126., 33., 224., 138. ]
      - [ 119., 43., 233., 155. ]
      - [ 136., 58., 239., 168. ]
      - [ 142., 48., 248., 165. ]
      - [ 138., 53., 250., 167. ]
      - [ 107., 17., 243., 165. ]
      - [ 110., 10., 222., 144. ]
      - [ 111., 15., 224., 142. ]
      - [ 121., 39., 228., 141. ]
      - [ 120., 30., 238., 189. ]
      - [ 113., 19., 214., 158. ]
      - [ 112., 18., 221., 156. ]
      - [ 100., 25., 231., 204. ]
      - [ 104., 26., 233., 207. ]
      - [ 96., 26., 231., 204. ]
      - [ 108., 27., 231., 205. ]
      - [ 102., 25., 231., 205. ]
      - [ 106., 11., 227., 162. ]
      - [ 109., 12., 224., 167. ]
      - [ 88., 26., 233., 190. ]
      - [ 84., 34., 235., 195. ]
      - [ 81., 29., 237., 194. ]
      - [ 83., 33., 233., 198. ]
      - [ 88., 45., 225., 186. ]
      - [ 101., 51., 234., 194. ]
      - [ 120., 39., 241., 199. ]
      - [ 123., 43., 229., 204. ]
      - [ 103., 25., 230., 195. ]
      - [ 118., 26., 250., 141. ]
      - [ 127., 19., 253., 151. ]
      - [ 147., 76., 229., 224. ]
      - [ 123., 42., 207., 201. ]
      - [ 91., 46., 199., 164. ]
      - [ 82., 28., 201., 156. ]
      - [ 131., 58., 226., 176. ]
      - [ 131., 58., 219., 177. ]
      - [ 128., 57., 215., 176. ]
      - [ 137., 60., 224., 178. ]
      - [ 140., 44., 209., 170. ]
      - [ 117., 45., 210., 172. ]
      - [ 115., 22., 235., 141. ]
      - [ 120., 29., 235., 149. ]
      - [ 120., 22., 226., 135. ]
      - [ 124., 31., 228., 148. ]
      - [ 121., 15., 224., 139. ]
      - [ 119., 15., 224., 141. ]
      - [ 104., 26., 210., 163. ]
      - [ 127., 37., 219., 156. ]
   decision_functions:
      -
         sv_count: 59
         rho: 2.2311843973810412e+001
         alpha: [ -1.1530939739167250e-006, -1.0877673740012521e-006,
             -1.1065021449410115e-006, -3.8110313763814439e-007,
             -1.1621947005731147e-006, -1.2348715583878079e-006,
             -1.2348715583878079e-006, -1.2348715583878079e-006,
             -1.2348715583878079e-006, -1.2694932892164933e-007,
             -1.1458653674961985e-007, -7.5406742200395130e-008,
             -6.7909106088859212e-008, -2.6888225307223352e-007,
             -7.4311268509788767e-007, -1.2307386530617185e-006,
             -6.0779954986091336e-008, -6.1362829076813428e-008,
             -2.3293024966642314e-007, -8.2610761850736725e-007,
             -2.9778472410272533e-008, -9.9700127332989067e-010,
             -3.7385302370530312e-008, 8.6538040859691871e-007,
             1.3239125843915095e-007, 1.2839139873060108e-007,
             8.6750940700903319e-010, 6.5782512307477051e-007,
             7.5680042824719261e-008, 1.1212615586036411e-007,
             3.7736231008930578e-008, 3.6057207606566105e-009,
             3.1284275279440215e-007, 3.0195453202390802e-008,
             5.7956450416927157e-008, 9.8911571120508663e-009,
             2.2682619927781805e-007, 1.9215434570436267e-008,
             1.5665040210395058e-007, 1.2348715583878079e-006,
             5.8099689638448868e-008, 1.2348715583878079e-006,
             2.9152965505962660e-007, 4.5780982258495323e-008,
             5.2891850190003016e-008, 1.0378898267331751e-008,
             1.2348715583878079e-006, 1.2348715583878079e-006,
             1.0198245930047632e-006, 1.2348715583878079e-006,
             2.9407912123729252e-008, 7.1136332850487170e-007,
             2.7685012986873995e-007, 2.2712783770219599e-008,
             2.5951074799063075e-008, 6.4796338816753872e-007,
             1.3152051759761012e-009, 5.4186113857935614e-007,
             9.6920417857637001e-007 ]
         index: [ 0, 1, 2, 3, 4, 5, 6, 7, 8, 9, 10, 11, 12, 13, 16, 17,
             18, 19, 20, 21, 22, 26, 27, 31, 32, 33, 34, 36, 37, 39, 40,
             41, 42, 43, 44, 45, 46, 47, 48, 50, 51, 52, 53, 54, 55, 56,
             57, 58, 59, 60, 61, 62, 63, 64, 65, 66, 67, 68, 69 ]
      -
         sv_count: 25
         rho: 5.8604963152464489e+000
         alpha: [ 5.6828866305145339e-010, 5.6828866305145339e-010,
             5.6828866305145339e-010, 5.3675482881919755e-010,
             1.0992904311674389e-010, 5.6828866305145339e-010,
             5.6828866305145339e-010, 5.6828866305145339e-010,
             5.6828866305145339e-010, 5.4672232047211152e-010,
             5.6828866305145339e-010, 5.6828866305145339e-010,
             -2.0363809005820282e-011, -5.6828866305145339e-010,
             -5.6828866305145339e-010, -5.6828866305145339e-010,
             -5.6828866305145339e-010, -5.6828866305145339e-010,
             -5.6828866305145339e-010, -5.6828866305145339e-010,
             -5.6828866305145339e-010, -5.6828866305145339e-010,
             -3.6465057299325891e-011, -5.6828866305145339e-010,
             -5.6828866305145339e-010 ]
         index: [ 0, 2, 9, 10, 14, 15, 23, 24, 25, 26, 28, 29, 70, 71,
             72, 73, 74, 75, 77, 78, 79, 81, 82, 83, 84 ]
      -
         sv_count: 25
         rho: 1.3973888552503343e+001
         alpha: [ 3.5559307352876701e-008, 3.4449869014462077e-008,
             1.4364075086793854e-008, 3.9033924918980700e-008,
             3.9033924918980700e-008, 3.9033924918980700e-008,
             3.9033924918980700e-008, 3.9033924918980700e-008,
             3.9033924918980700e-008, 3.9033924918980700e-008,
             3.9033924918980700e-008, 5.5219208178677168e-009,
             3.1109994976839810e-008, -3.9033924918980700e-008,
             -3.8603756028850751e-008, -3.9033924918980700e-008,
             -3.3115790037953617e-008, -3.9033924918980700e-008,
             -3.9033924918980700e-008, -3.9033924918980700e-008,
             -3.9033924918980700e-008, -3.9033924918980700e-008,
             -3.9033924918980700e-008, -1.0251696263055180e-008,
             -3.9033924918980700e-008 ]
         index: [ 30, 32, 35, 38, 39, 40, 44, 45, 46, 48, 49, 61, 69, 72,
             73, 75, 76, 78, 79, 80, 81, 82, 83, 84, 85 ]
