%YAML:1.0
my_svm: !!opencv-ml-svm
   svm_type: NU_SVC
   kernel: { type:POLY, degree:3., gamma:3.1250000000000000e-002,
       coef0:0. }
   nu: 2.0000000000000001e-001
   term_criteria: { epsilon:1.1920928955078125e-007, iterations:1000 }
   var_all: 4
   var_count: 4
   class_count: 3
   class_labels: !!opencv-matrix
      rows: 1
      cols: 3
      dt: i
      data: [ 0, 1, 2 ]
   sv_total: 68
   support_vectors:
      - [ 69., 46., 127., 136. ]
      - [ 61., 42., 130., 138. ]
      - [ 63., 47., 133., 141. ]
      - [ 76., 55., 132., 143. ]
      - [ 70., 38., 129., 142. ]
      - [ 42., 28., 113., 129. ]
      - [ 40., 30., 126., 134. ]
      - [ 41., 30., 124., 139. ]
      - [ 43., 33., 130., 144. ]
      - [ 52., 34., 123., 128. ]
      - [ 53., 34., 126., 138. ]
      - [ 52., 46., 132., 142. ]
      - [ 54., 48., 135., 140. ]
      - [ 59., 57., 133., 151. ]
      - [ 59., 59., 131., 153. ]
      - [ 46., 56., 130., 150. ]
      - [ 59., 63., 133., 149. ]
      - [ 54., 58., 134., 153. ]
      - [ 49., 51., 132., 143. ]
      - [ 45., 56., 130., 141. ]
      - [ 46., 63., 138., 152. ]
      - [ 63., 75., 142., 151. ]
      - [ 64., 74., 137., 156. ]
      - [ 69., 76., 138., 152. ]
      - [ 44., 60., 130., 145. ]
      - [ 42., 56., 129., 144. ]
      - [ 47., 60., 131., 141. ]
      - [ 43., 59., 131., 143. ]
      - [ 44., 61., 130., 146. ]
      - [ 47., 55., 117., 135. ]
      - [ 48., 58., 120., 135. ]
      - [ 44., 52., 115., 138. ]
      - [ 61., 65., 132., 142. ]
      - [ 59., 64., 130., 141. ]
      - [ 67., 72., 131., 137. ]
      - [ 60., 62., 119., 143. ]
      - [ 62., 60., 117., 142. ]
      - [ 51., 40., 114., 137. ]
      - [ 50., 43., 129., 144. ]
      - [ 68., 52., 133., 154. ]
      - [ 64., 51., 132., 153. ]
      - [ 74., 64., 121., 143. ]
      - [ 67., 64., 132., 155. ]
      - [ 51., 60., 133., 169. ]
      - [ 40., 46., 120., 136. ]
      - [ 48., 56., 121., 134. ]
      - [ 46., 53., 119., 136. ]
      - [ 55., 61., 130., 134. ]
      - [ 51., 40., 114., 137. ]
      - [ 37., 46., 110., 144. ]
      - [ 46., 57., 114., 132. ]
      - [ 38., 42., 115., 133. ]
      - [ 35., 42., 112., 130. ]
      - [ 41., 43., 112., 139. ]
      - [ 33., 42., 109., 139. ]
      - [ 58., 38., 111., 147. ]
      - [ 54., 31., 111., 135. ]
      - [ 37., 60., 106., 167. ]
      - [ 30., 55., 108., 165. ]
      - [ 63., 51., 115., 138. ]
      - [ 65., 55., 111., 137. ]
      - [ 71., 63., 112., 144. ]
      - [ 62., 71., 116., 137. ]
      - [ 68., 70., 117., 134. ]
      - [ 63., 70., 117., 138. ]
      - [ 68., 74., 116., 140. ]
      - [ 67., 70., 119., 141. ]
      - [ 66., 68., 118., 134. ]
   decision_functions:
      -
         sv_count: 29
         rho: 8.4876220441112249e+000
         alpha: [ 9.2861950573738980e-009, 7.5120428025234360e-008,
             4.5598772554854130e-008, 7.5120428025234360e-008,
             6.7421320298872083e-008, 7.5120428025234360e-008,
             7.5120428025234360e-008, 7.5120428025234360e-008,
             7.5120428025234360e-008, 7.5120428025234360e-008,
             7.5120428025234360e-008, 7.5120428025234360e-008,
             7.3006824954509487e-008, 7.5120428025234360e-008,
             7.5120428025234360e-008, -7.5120428025234360e-008,
             -7.5120428025234360e-008, -7.5120428025234360e-008,
             -7.5120428025234360e-008, -7.5120428025234360e-008,
             -7.5120428025234360e-008, -7.5120428025234360e-008,
             -4.5072256815140725e-008, -7.5120428025234360e-008,
             -7.5120428025234360e-008, -7.5120428025234360e-008,
             -7.5120428025234360e-008, -7.5120428025234360e-008,
             -7.5120428025234360e-008 ]
         index: [ 0, 5, 7, 9, 13, 14, 15, 16, 17, 18, 19, 20, 21, 22, 23,
             24, 25, 26, 27, 28, 32, 33, 34, 38, 39, 40, 42, 43, 47 ]
      -
         sv_count: 37
         rho: 4.1172077213990974e+000
         alpha: [ 1.2597717263721870e-009, 1.2597717263721870e-009,
             4.9437223520679314e-010, 1.2597717263721870e-009,
             1.2597717263721870e-009, 1.2597717263721870e-009,
             1.2597717263721870e-009, 1.2597717263721870e-009,
             1.2597717263721870e-009, 1.2597717263721870e-009,
             1.2597717263721870e-009, 1.2597717263721870e-009,
             1.1433310090770511e-009, 1.2597717263721870e-009,
             1.2597717263721870e-009, 1.2597717263721870e-009,
             1.2597717263721870e-009, 1.2597717263721870e-009,
             -1.2597717263721870e-009, -1.2597717263721870e-009,
             -1.2597717263721870e-009, -3.3142338286559695e-011,
             -1.2597717263721870e-009, -1.2597717263721870e-009,
             -1.2597717263721870e-009, -1.2597717263721870e-009,
             -8.5983022166935529e-010, -1.2597717263721870e-009,
             -1.2597717263721870e-009, -1.2597717263721870e-009,
             -1.2597717263721870e-009, -7.4473068432792973e-010,
             -1.2597717263721870e-009, -1.2597717263721870e-009,
             -1.2597717263721870e-009, -1.2597717263721870e-009,
             -1.2597717263721870e-009 ]
         index: [ 0, 1, 2, 3, 4, 5, 6, 7, 8, 9, 10, 11, 12, 14, 15, 16,
             18, 19, 48, 49, 51, 52, 53, 54, 55, 56, 57, 58, 59, 60, 61,
             62, 63, 64, 65, 66, 67 ]
      -
         sv_count: 22
         rho: 1.0571606828377258e+001
         alpha: [ 3.8692954744119344e-008, 3.8692954744119344e-008,
             3.8692954744119344e-008, 3.8692954744119344e-008,
             3.8692954744119344e-008, 3.8692954744119344e-008,
             3.8692954744119344e-008, 3.4823659269707429e-008,
             3.8692954744119344e-008, 3.8692954744119344e-008,
             -3.8692954744119344e-008, -3.8692954744119344e-008,
             -3.8692954744119344e-008, -7.3425571792770323e-009,
             -3.8692954744119344e-008, -1.5677154066144689e-008,
             -2.4182299222350464e-008, -3.8692954744119344e-008,
             -2.6314603546054570e-008, -3.8692954744119344e-008,
             -3.8692954744119344e-008, -3.8692954744119344e-008 ]
         index: [ 29, 30, 31, 35, 36, 37, 41, 44, 45, 46, 48, 50, 51, 52,
             53, 55, 58, 59, 62, 64, 66, 67 ]
