%YAML:1.0
my_svm: !!opencv-ml-svm
   svm_type: NU_SVC
   kernel: { type:POLY, degree:3., gamma:3.1250000000000000e-002,
       coef0:0. }
   nu: 2.0000000000000001e-001
   term_criteria: { epsilon:1.1920928955078125e-007, iterations:1000 }
   var_all: 5
   var_count: 5
   class_count: 3
   class_labels: !!opencv-matrix
      rows: 1
      cols: 3
      dt: i
      data: [ 0, 1, 2 ]
   sv_total: 98
   support_vectors:
      - [ 109., 122., 92., 129., 30. ]
      - [ 98., 117., 89., 122., 28. ]
      - [ 129., 101., 99., 80., 2. ]
      - [ 110., 74., 86., 74., 12. ]
      - [ 99., 96., 91., 72., 5. ]
      - [ 103., 89., 93., 72., 4. ]
      - [ 116., 116., 116., 87., 0. ]
      - [ 131., 103., 104., 84., 1. ]
      - [ 117., 96., 96., 78., 0. ]
      - [ 81., 80., 55., 85., 25. ]
      - [ 76., 77., 58., 84., 19. ]
      - [ 71., 72., 57., 85., 15. ]
      - [ 74., 73., 57., 88., 16. ]
      - [ 77., 79., 61., 88., 18. ]
      - [ 73., 48., 44., 73., 4. ]
      - [ 69., 47., 43., 76., 4. ]
      - [ 71., 48., 47., 78., 1. ]
      - [ 67., 46., 52., 76., 6. ]
      - [ 69., 50., 52., 78., 2. ]
      - [ 68., 54., 50., 82., 4. ]
      - [ 57., 50., 39., 82., 11. ]
      - [ 58., 80., 56., 94., 24. ]
      - [ 60., 75., 56., 96., 19. ]
      - [ 69., 79., 56., 92., 23. ]
      - [ 52., 75., 53., 74., 22. ]
      - [ 77., 96., 73., 89., 23. ]
      - [ 64., 80., 61., 90., 19. ]
      - [ 56., 71., 56., 88., 15. ]
      - [ 55., 67., 51., 87., 16. ]
      - [ 57., 63., 51., 77., 12. ]
      - [ 63., 75., 51., 90., 24. ]
      - [ 74., 66., 47., 78., 19. ]
      - [ 126., 141., 83., 88., 58. ]
      - [ 122., 139., 83., 91., 56. ]
      - [ 120., 134., 84., 82., 50. ]
      - [ 116., 136., 102., 102., 34. ]
      - [ 106., 118., 93., 97., 25. ]
      - [ 131., 134., 96., 98., 38. ]
      - [ 121., 123., 94., 97., 29. ]
      - [ 114., 112., 84., 91., 28. ]
      - [ 132., 150., 86., 93., 64. ]
      - [ 122., 140., 90., 87., 50. ]
      - [ 119., 137., 91., 88., 46. ]
      - [ 119., 138., 91., 89., 47. ]
      - [ 107., 124., 93., 93., 31. ]
      - [ 102., 121., 94., 90., 27. ]
      - [ 98., 112., 71., 76., 41. ]
      - [ 88., 104., 69., 86., 35. ]
      - [ 84., 104., 66., 81., 38. ]
      - [ 81., 100., 66., 78., 34. ]
      - [ 83., 103., 67., 87., 36. ]
      - [ 83., 103., 68., 85., 35. ]
      - [ 82., 101., 67., 83., 34. ]
      - [ 107., 115., 68., 78., 47. ]
      - [ 109., 116., 70., 84., 46. ]
      - [ 95., 120., 80., 105., 40. ]
      - [ 96., 120., 82., 108., 38. ]
      - [ 101., 122., 84., 109., 38. ]
      - [ 98., 99., 63., 92., 36. ]
      - [ 97., 95., 60., 97., 35. ]
      - [ 92., 93., 59., 95., 34. ]
      - [ 88., 96., 61., 92., 35. ]
      - [ 134., 131., 90., 110., 41. ]
      - [ 91., 96., 57., 86., 39. ]
      - [ 107., 115., 80., 96., 35. ]
      - [ 123., 127., 90., 96., 37. ]
      - [ 119., 126., 89., 92., 37. ]
      - [ 79., 88., 82., 75., 6. ]
      - [ 89., 89., 82., 83., 7. ]
      - [ 98., 97., 94., 75., 3. ]
      - [ 106., 100., 101., 75., 1. ]
      - [ 70., 80., 47., 87., 33. ]
      - [ 68., 81., 46., 88., 35. ]
      - [ 99., 84., 48., 97., 36. ]
      - [ 80., 75., 50., 82., 25. ]
      - [ 85., 77., 43., 83., 34. ]
      - [ 103., 86., 49., 98., 37. ]
      - [ 71., 94., 48., 87., 46. ]
      - [ 75., 88., 47., 84., 41. ]
      - [ 102., 108., 64., 63., 44. ]
      - [ 109., 113., 67., 65., 46. ]
      - [ 92., 108., 59., 67., 49. ]
      - [ 121., 105., 64., 66., 41. ]
      - [ 106., 100., 57., 70., 43. ]
      - [ 54., 100., 50., 104., 50. ]
      - [ 57., 95., 56., 96., 39. ]
      - [ 69., 81., 41., 80., 40. ]
      - [ 80., 84., 54., 86., 30. ]
      - [ 60., 94., 60., 86., 34. ]
      - [ 62., 92., 57., 88., 35. ]
      - [ 93., 88., 51., 81., 37. ]
      - [ 127., 118., 69., 111., 49. ]
      - [ 113., 113., 57., 93., 56. ]
      - [ 81., 80., 51., 69., 29. ]
      - [ 94., 80., 52., 71., 28. ]
      - [ 61., 82., 51., 45., 31. ]
      - [ 83., 87., 54., 50., 33. ]
      - [ 78., 80., 50., 52., 30. ]
   decision_functions:
      -
         sv_count: 58
         rho: -4.1987127733514679e-002
         alpha: [ 1.2041844106447138e-007, 2.3242279457733554e-008,
             1.4836757274471628e-008, 5.9873662462501117e-009,
             3.8389424173308826e-009, 4.5365883516065527e-008,
             2.5804038193196968e-009, 1.2077101603513172e-008,
             3.4318889293431613e-009, 1.3364091620705581e-007,
             1.3364091620705581e-007, 4.2409017156575226e-008,
             1.3364091620705581e-007, 1.0330186350729875e-007,
             1.3364091620705581e-007, 1.3364091620705581e-007,
             1.3364091620705581e-007, 1.3364091620705581e-007,
             4.7760345231026013e-008, 1.3364091620705581e-007,
             1.3364091620705581e-007, 1.3364091620705581e-007,
             1.3364091620705581e-007, 1.3364091620705581e-007,
             1.3364091620705581e-007, 1.3364091620705581e-007,
             4.5186519657785923e-008, 8.3163459892388146e-008,
             1.3364091620705581e-007, 1.2290325152093713e-007,
             3.8995103653701569e-009, 1.3364091620705581e-007,
             1.3364091620705581e-007, 1.1656409961044260e-009,
             -1.3364091620705581e-007, -1.3364091620705581e-007,
             -1.3364091620705581e-007, -1.3364091620705581e-007,
             -1.3364091620705581e-007, -1.3364091620705581e-007,
             -1.3364091620705581e-007, -1.3364091620705581e-007,
             -8.4901720572673726e-008, -9.0622564928618880e-008,
             -1.3364091620705581e-007, -1.3364091620705581e-007,
             -1.3364091620705581e-007, -3.0610013266583075e-008,
             -1.3364091620705581e-007, -1.3364091620705581e-007,
             -7.4511625266941747e-008, -1.3364091620705581e-007,
             -1.3364091620705581e-007, -1.3364091620705581e-007,
             -1.3364091620705581e-007, -1.3364091620705581e-007,
             -1.3364091620705581e-007, -1.3364091620705581e-007 ]
         index: [ 0, 1, 2, 3, 4, 5, 6, 7, 8, 9, 10, 11, 13, 14, 21, 23,
             24, 25, 26, 29, 30, 31, 32, 33, 35, 36, 37, 38, 39, 40, 42,
             43, 44, 45, 46, 47, 48, 49, 50, 51, 52, 53, 54, 55, 56, 57,
             58, 59, 60, 61, 62, 64, 65, 66, 67, 68, 69, 70 ]
      -
         sv_count: 51
         rho: 3.5762023368940749e-001
         alpha: [ 5.0465933590961891e-009, 5.0465933590961891e-009,
             5.0465933590961891e-009, 2.8374458857289928e-009,
             5.0465933590961891e-009, 5.0465933590961891e-009,
             5.0465933590961891e-009, 5.0465933590961891e-009,
             5.0465933590961891e-009, 5.0465933590961891e-009,
             5.0465933590961891e-009, 5.0465933590961891e-009,
             5.0465933590961891e-009, 5.0465933590961891e-009,
             5.0465933590961891e-009, 5.0465933590961891e-009,
             5.0465933590961891e-009, 5.0465933590961891e-009,
             5.0465933590961891e-009, 5.0465933590961891e-009,
             5.0465933590961891e-009, 5.0465933590961891e-009,
             5.0465933590961891e-009, 5.0465933590961891e-009,
             2.2091474733671963e-009, -5.0465933590961891e-009,
             -5.0465933590961891e-009, -5.0465933590961891e-009,
             -5.0465933590961891e-009, -5.0465933590961891e-009,
             -5.0465933590961891e-009, -1.5340914645493429e-009,
             -5.0465933590961891e-009, -5.0465933590961891e-009,
             -5.0465933590961891e-009, -4.3311553089538847e-010,
             -5.0465933590961891e-009, -5.0465933590961891e-009,
             -5.0465933590961891e-009, -5.0465933590961891e-009,
             -5.0465933590961891e-009, -5.0465933590961891e-009,
             -5.0465933590961891e-009, -5.0465933590961891e-009,
             -5.0465933590961891e-009, -3.0793863636514519e-009,
             -5.0465933590961891e-009, -5.0465933590961891e-009,
             -5.0465933590961891e-009, -5.0465933590961891e-009,
             -5.0465933590961891e-009 ]
         index: [ 9, 10, 11, 12, 14, 15, 16, 17, 18, 19, 20, 21, 22, 23,
             24, 27, 28, 29, 30, 31, 32, 33, 34, 40, 41, 71, 72, 73, 74,
             75, 76, 77, 78, 79, 80, 81, 82, 83, 84, 85, 86, 87, 88, 89,
             90, 91, 93, 94, 95, 96, 97 ]
      -
         sv_count: 23
         rho: 3.4711079646028926e+000
         alpha: [ 2.8479160855457014e-009, 2.8479160855457115e-008,
             2.8479160855457115e-008, 2.8479160855457115e-008,
             2.8479160855457115e-008, 2.8479160855457115e-008,
             2.8479160855457115e-008, 2.8479160855457115e-008,
             2.8479160855457115e-008, 2.8479160855457115e-008,
             -5.8253983706084804e-010, -6.1261408274539260e-009,
             -2.8479160855457115e-008, -2.8479160855457115e-008,
             -2.8479160855457115e-008, -1.4784777519317405e-008,
             -6.8404325084374938e-009, -2.8479160855457115e-008,
             -2.8479160855457115e-008, -2.8479160855457115e-008,
             -2.8479160855457115e-008, -2.8479160855457115e-008,
             -2.9931862487331519e-009 ]
         index: [ 46, 48, 49, 52, 53, 58, 59, 60, 61, 63, 73, 74, 76, 79,
             80, 82, 84, 85, 87, 88, 89, 91, 92 ]
