%YAML:1.0
my_svm: !!opencv-ml-svm
   svm_type: NU_SVC
   kernel: { type:POLY, degree:3., gamma:3.1250000000000000e-002,
       coef0:0. }
   nu: 1.0000000000000001e-001
   term_criteria: { epsilon:1.1920928955078125e-007, iterations:1000 }
   var_all: 4
   var_count: 4
   class_count: 3
   class_labels: !!opencv-matrix
      rows: 1
      cols: 3
      dt: i
      data: [ 0, 1, 2 ]
   sv_total: 52
   support_vectors:
      - [ 82., 71., 79., 104. ]
      - [ 118., 122., 97., 126. ]
      - [ 107., 103., 91., 78. ]
      - [ 117., 121., 101., 85. ]
      - [ 123., 128., 116., 82. ]
      - [ 105., 115., 97., 90. ]
      - [ 144., 115., 102., 81. ]
      - [ 143., 110., 100., 78. ]
      - [ 132., 124., 113., 94. ]
      - [ 81., 80., 55., 85. ]
      - [ 97., 94., 65., 95. ]
      - [ 73., 48., 44., 73. ]
      - [ 69., 47., 43., 76. ]
      - [ 67., 46., 52., 76. ]
      - [ 66., 53., 60., 78. ]
      - [ 57., 50., 39., 82. ]
      - [ 56., 55., 57., 83. ]
      - [ 75., 92., 56., 98. ]
      - [ 86., 102., 56., 109. ]
      - [ 52., 75., 53., 74. ]
      - [ 75., 102., 62., 91. ]
      - [ 75., 98., 50., 85. ]
      - [ 74., 66., 47., 78. ]
      - [ 73., 62., 51., 91. ]
      - [ 75., 71., 64., 86. ]
      - [ 77., 64., 62., 87. ]
      - [ 92., 83., 65., 86. ]
      - [ 106., 104., 84., 82. ]
      - [ 118., 116., 90., 74. ]
      - [ 120., 106., 96., 75. ]
      - [ 126., 107., 82., 71. ]
      - [ 88., 104., 69., 86. ]
      - [ 83., 103., 67., 87. ]
      - [ 83., 103., 68., 85. ]
      - [ 81., 88., 66., 85. ]
      - [ 107., 115., 68., 78. ]
      - [ 109., 116., 70., 84. ]
      - [ 89., 80., 71., 80. ]
      - [ 87., 78., 67., 76. ]
      - [ 70., 80., 47., 87. ]
      - [ 68., 81., 46., 88. ]
      - [ 99., 84., 48., 97. ]
      - [ 80., 75., 50., 82. ]
      - [ 85., 77., 43., 83. ]
      - [ 103., 86., 49., 98. ]
      - [ 77., 90., 38., 92. ]
      - [ 71., 94., 48., 87. ]
      - [ 75., 88., 47., 84. ]
      - [ 91., 104., 65., 62. ]
      - [ 127., 102., 69., 81. ]
      - [ 96., 115., 67., 65. ]
      - [ 90., 102., 66., 76. ]
   decision_functions:
      -
         sv_count: 33
         rho: -1.3322386966052744e+000
         alpha: [ 1.2931600217662580e-008, 4.5761602721702507e-007,
             1.7800051159536078e-007, 2.0990226268628143e-006,
             4.1323043322770569e-008, 7.5396457628452656e-007,
             1.9976428053309162e-006, 2.2250352130930536e-007,
             4.5618426386404270e-007, 1.8694103050396584e-006,
             2.0990226268628143e-006, 2.0990226268628143e-006,
             6.1739013852474307e-007, 7.7117246056212893e-007,
             8.6992469554425216e-007, 1.3988362786994071e-008,
             1.9822997135278842e-006, 5.6429637025531092e-008,
             2.0990226268628143e-006, 6.1413599753383564e-007,
             -2.0990226268628143e-006, -2.0990226268628143e-006,
             -2.0990226268628143e-006, -2.0990226268628143e-006,
             -2.0990226268628143e-006, -1.4495967453561651e-006,
             -2.0990226268628143e-006, -1.3690713619995310e-006,
             -4.1980452537256510e-007, -2.0990226268628143e-006,
             -7.4223414711229156e-008, -4.6268314916962782e-007,
             -8.4247058248907533e-007 ]
         index: [ 0, 1, 2, 3, 4, 5, 6, 7, 8, 10, 11, 12, 13, 14, 15, 16,
             19, 20, 21, 22, 23, 24, 25, 26, 27, 28, 29, 30, 31, 32, 33,
             34, 37 ]
      -
         sv_count: 22
         rho: -1.1022851721050481e-001
         alpha: [ 1.3004516155004095e-008, 3.4593404757901477e-008,
             3.4593404757901477e-008, 3.4593404757901477e-008,
             3.4593404757901477e-008, 2.7072574649948008e-008,
             2.5650378235060745e-008, 3.4593404757901477e-008,
             3.4593404757901477e-008, 3.4593404757901477e-008,
             3.4593404757901477e-008, -3.4593404757901477e-008,
             -3.4593404757901477e-008, -3.4593404757901477e-008,
             -3.4593404757901477e-008, -3.4593404757901477e-008,
             -3.4593404757901477e-008, -2.4053471440719548e-009,
             -3.4593404757901477e-008, -3.4593404757901477e-008,
             -2.8728717138039379e-008, -3.4593404757901477e-008 ]
         index: [ 6, 9, 10, 11, 12, 15, 17, 18, 20, 21, 22, 39, 40, 41,
             42, 43, 44, 45, 46, 47, 48, 51 ]
      -
         sv_count: 11
         rho: 5.2085705456845393e+000
         alpha: [ 3.0686428567397635e-007, 2.5144593808391927e-009,
             3.0686428567397635e-007, 1.6198217960393202e-007,
             2.0374050382400077e-007, -3.0686428567397635e-007,
             -2.5872214700646204e-009, -5.2563401078212373e-008,
             -2.1118357901319114e-007, -1.0190294124730356e-007,
             -3.0686428567397635e-007 ]
         index: [ 23, 30, 35, 36, 38, 39, 40, 44, 49, 50, 51 ]
