%YAML:1.0
my_svm: !!opencv-ml-svm
   svm_type: NU_SVC
   kernel: { type:POLY, degree:3., gamma:3.1250000000000000e-002,
       coef0:0. }
   nu: 5.0000000000000000e-001
   term_criteria: { epsilon:1.1920928955078125e-007, iterations:1000 }
   var_all: 4
   var_count: 4
   class_count: 3
   class_labels: !!opencv-matrix
      rows: 1
      cols: 3
      dt: i
      data: [ 0, 1, 2 ]
   sv_total: 34
   support_vectors:
      - [ 85., 54., 154., 159. ]
      - [ 83., 44., 157., 158. ]
      - [ 76., 44., 154., 163. ]
      - [ 79., 48., 152., 155. ]
      - [ 79., 50., 160., 164. ]
      - [ 81., 47., 162., 161. ]
      - [ 88., 55., 166., 163. ]
      - [ 68., 61., 170., 189. ]
      - [ 50., 67., 125., 166. ]
      - [ 54., 69., 147., 162. ]
      - [ 52., 67., 141., 160. ]
      - [ 52., 68., 137., 163. ]
      - [ 50., 66., 139., 163. ]
      - [ 53., 42., 130., 150. ]
      - [ 47., 40., 119., 151. ]
      - [ 49., 36., 126., 155. ]
      - [ 48., 39., 125., 142. ]
      - [ 54., 54., 151., 158. ]
      - [ 58., 56., 151., 160. ]
      - [ 51., 50., 144., 155. ]
      - [ 49., 54., 151., 156. ]
      - [ 50., 56., 151., 163. ]
      - [ 56., 49., 110., 137. ]
      - [ 53., 50., 103., 141. ]
      - [ 51., 76., 122., 155. ]
      - [ 48., 82., 134., 157. ]
      - [ 53., 83., 121., 161. ]
      - [ 59., 82., 126., 173. ]
      - [ 61., 86., 132., 159. ]
      - [ 56., 86., 130., 165. ]
      - [ 43., 78., 120., 162. ]
      - [ 56., 85., 127., 164. ]
      - [ 63., 60., 117., 156. ]
      - [ 56., 55., 118., 143. ]
   decision_functions:
      -
         sv_count: 12
         rho: 3.3876787152150141e+000
         alpha: [ 7.1753813835751778e-010, 7.1753813835751778e-010,
             7.1753813835751778e-010, 7.1753813835751778e-010,
             7.1753813835751778e-010, 7.1753813835751778e-010,
             -7.1753813835751778e-010, -7.1753813835751778e-010,
             -7.1753813835751778e-010, -7.1753813835751778e-010,
             -7.1753813835751778e-010, -7.1753813835751778e-010 ]
         index: [ 0, 1, 2, 3, 4, 5, 9, 17, 18, 19, 20, 21 ]
      -
         sv_count: 17
         rho: 2.0092922848374455e+000
         alpha: [ 1.4722063609545927e-010, 1.4722063609545927e-010,
             1.4722063609545927e-010, 1.4722063609545927e-010,
             1.4722063609545927e-010, 1.4722063609545927e-010,
             1.4722063609545927e-010, 1.4722063609545927e-010,
             -1.1510144781450302e-010, -1.4722063609545927e-010,
             -1.4722063609545927e-010, -1.4722063609545927e-010,
             -1.4722063609545927e-010, -1.4722063609545927e-010,
             -1.4722063609545927e-010, -1.4722063609545927e-010,
             -3.2119188280956261e-011 ]
         index: [ 0, 1, 2, 3, 4, 5, 6, 7, 24, 25, 26, 27, 28, 29, 31, 32,
             33 ]
      -
         sv_count: 20
         rho: 2.0518594206712715e+000
         alpha: [ 1.4209218995847906e-009, 1.4209218995847906e-009,
             1.4209218995847906e-009, 1.4209218995847906e-009,
             1.4209218995847906e-009, 1.4209218995847906e-009,
             1.4209218995847906e-009, 1.4209218995847906e-009,
             1.4209218995847906e-009, 7.1046094979239528e-010,
             -1.4209218995847906e-009, -1.4209218995847906e-009,
             -1.4209218995847906e-009, -1.4209218995847906e-009,
             -1.4209218995847906e-009, -7.1046094979239528e-010,
             -1.4209218995847906e-009, -1.4209218995847906e-009,
             -1.4209218995847906e-009, -1.4209218995847906e-009 ]
         index: [ 8, 9, 10, 11, 12, 13, 14, 15, 16, 19, 22, 23, 24, 25,
             27, 28, 29, 30, 32, 33 ]
