%YAML:1.0
my_svm: !!opencv-ml-svm
   svm_type: NU_SVC
   kernel: { type:POLY, degree:3., gamma:3.1250000000000000e-002,
       coef0:0. }
   nu: 2.0000000000000001e-001
   term_criteria: { epsilon:1.1920928955078125e-007, iterations:1000 }
   var_all: 4
   var_count: 4
   class_count: 3
   class_labels: !!opencv-matrix
      rows: 1
      cols: 3
      dt: i
      data: [ 0, 1, 2 ]
   sv_total: 87
   support_vectors:
      - [ 76., 52., 133., 146. ]
      - [ 86., 57., 135., 140. ]
      - [ 40., 30., 126., 134. ]
      - [ 41., 30., 124., 139. ]
      - [ 43., 33., 130., 144. ]
      - [ 52., 34., 123., 128. ]
      - [ 58., 54., 135., 145. ]
      - [ 54., 48., 135., 140. ]
      - [ 61., 39., 132., 148. ]
      - [ 69., 42., 132., 145. ]
      - [ 93., 81., 143., 171. ]
      - [ 50., 53., 132., 154. ]
      - [ 65., 59., 127., 148. ]
      - [ 62., 57., 128., 152. ]
      - [ 54., 56., 128., 148. ]
      - [ 56., 57., 129., 145. ]
      - [ 55., 58., 130., 150. ]
      - [ 54., 63., 128., 163. ]
      - [ 38., 52., 132., 148. ]
      - [ 44., 57., 132., 152. ]
      - [ 45., 57., 134., 148. ]
      - [ 37., 37., 130., 151. ]
      - [ 35., 42., 130., 153. ]
      - [ 34., 38., 125., 135. ]
      - [ 38., 51., 131., 130. ]
      - [ 43., 46., 128., 150. ]
      - [ 38., 39., 122., 147. ]
      - [ 44., 60., 130., 145. ]
      - [ 42., 56., 129., 144. ]
      - [ 47., 60., 131., 141. ]
      - [ 43., 59., 131., 143. ]
      - [ 44., 61., 130., 146. ]
      - [ 47., 55., 117., 135. ]
      - [ 48., 58., 120., 135. ]
      - [ 44., 54., 121., 136. ]
      - [ 44., 52., 115., 138. ]
      - [ 59., 64., 130., 141. ]
      - [ 60., 62., 119., 143. ]
      - [ 62., 60., 117., 142. ]
      - [ 74., 64., 121., 143. ]
      - [ 67., 64., 132., 155. ]
      - [ 40., 46., 120., 136. ]
      - [ 48., 56., 121., 134. ]
      - [ 46., 53., 119., 136. ]
      - [ 55., 61., 130., 134. ]
      - [ 61., 49., 130., 148. ]
      - [ 53., 62., 119., 147. ]
      - [ 59., 40., 120., 152. ]
      - [ 58., 36., 123., 151. ]
      - [ 57., 39., 125., 154. ]
      - [ 77., 52., 130., 148. ]
      - [ 73., 53., 123., 156. ]
      - [ 76., 50., 124., 153. ]
      - [ 48., 55., 118., 142. ]
      - [ 50., 56., 121., 135. ]
      - [ 55., 70., 123., 128. ]
      - [ 53., 58., 119., 127. ]
      - [ 43., 61., 130., 148. ]
      - [ 33., 32., 117., 131. ]
      - [ 31., 36., 137., 140. ]
      - [ 33., 32., 117., 131. ]
      - [ 37., 46., 110., 144. ]
      - [ 38., 42., 115., 133. ]
      - [ 41., 43., 112., 139. ]
      - [ 58., 38., 111., 147. ]
      - [ 37., 60., 106., 167. ]
      - [ 30., 55., 108., 165. ]
      - [ 63., 51., 115., 138. ]
      - [ 71., 63., 112., 144. ]
      - [ 62., 71., 116., 137. ]
      - [ 63., 70., 117., 138. ]
      - [ 55., 71., 113., 147. ]
      - [ 68., 74., 116., 140. ]
      - [ 67., 70., 119., 141. ]
      - [ 66., 68., 118., 134. ]
      - [ 60., 72., 117., 139. ]
      - [ 67., 68., 115., 143. ]
      - [ 80., 71., 117., 147. ]
      - [ 44., 55., 117., 136. ]
      - [ 47., 56., 117., 135. ]
      - [ 43., 60., 117., 127. ]
      - [ 43., 44., 120., 127. ]
      - [ 41., 45., 116., 133. ]
      - [ 40., 40., 121., 128. ]
      - [ 44., 55., 117., 136. ]
      - [ 47., 56., 117., 135. ]
      - [ 41., 45., 116., 133. ]
   decision_functions:
      -
         sv_count: 38
         rho: 9.2044419873545937e+000
         alpha: [ 3.6462937785175008e-008, 8.3505299073530220e-008,
             8.3505299073530220e-008, 8.3505299073530220e-008,
             8.3505299073530220e-008, 4.1707889651882909e-008,
             8.3505299073530220e-008, 8.3505299073530220e-008,
             8.3505299073530220e-008, 8.3505299073530220e-008,
             8.3505299073530220e-008, 8.3505299073530220e-008,
             2.2035531451178256e-008, 8.3505299073530220e-008,
             8.3505299073530220e-008, 8.3505299073530220e-008,
             8.3505299073530220e-008, 8.3505299073530220e-008,
             8.3505299073530220e-008, -8.3505299073530220e-008,
             -8.3505299073530220e-008, -8.3505299073530220e-008,
             -8.3505299073530220e-008, -8.3505299073530220e-008,
             -8.2067025879592868e-008, -8.3505299073530220e-008,
             -8.0072107109605476e-008, -8.3505299073530220e-008,
             -8.3505299073530220e-008, -8.3505299073530220e-008,
             -8.3505299073530220e-008, -8.3505299073530220e-008,
             -1.3403784003985465e-008, -8.3505299073530220e-008,
             -8.3505299073530220e-008, -8.1042538033224270e-008,
             -8.3505299073530220e-008, -1.0631502008888556e-008 ]
         index: [ 0, 1, 2, 3, 5, 10, 12, 13, 14, 15, 16, 17, 18, 19, 20,
             23, 24, 25, 26, 27, 28, 29, 30, 31, 36, 40, 44, 45, 47, 48,
             49, 50, 51, 52, 57, 58, 59, 60 ]
      -
         sv_count: 50
         rho: 4.7829752396230765e+000
         alpha: [ 6.7158497169949632e-010, 6.7158497169949632e-010,
             6.7158497169949632e-010, 6.7158497169949632e-010,
             6.7158497169949632e-010, 6.7158497169949632e-010,
             6.7158497169949632e-010, 6.7158497169949632e-010,
             5.0402452624991931e-010, 6.7158497169949632e-010,
             5.7051142846927579e-010, 6.7158497169949632e-010,
             6.7158497169949632e-010, 6.7158497169949632e-010,
             6.7158497169949632e-010, 6.7158497169949632e-010,
             6.7158497169949632e-010, 6.7158497169949632e-010,
             6.7158497169949632e-010, 6.7158497169949632e-010,
             6.7158497169949632e-010, 6.7158497169949632e-010,
             6.7158497169949632e-010, 6.7158497169949632e-010,
             6.7158497169949632e-010, -6.7158497169949632e-010,
             -6.2367940415209820e-010, -6.7158497169949632e-010,
             -6.7158497169949632e-010, -6.7158497169949632e-010,
             -6.7158497169949632e-010, -6.7158497169949632e-010,
             -6.7158497169949632e-010, -4.5085655056709695e-010,
             -6.7158497169949632e-010, -6.7158497169949632e-010,
             -6.7158497169949632e-010, -6.7158497169949632e-010,
             -6.7158497169949632e-010, -6.7158497169949632e-010,
             -6.7158497169949632e-010, -6.7158497169949632e-010,
             -6.7158497169949632e-010, -6.7158497169949632e-010,
             -6.7158497169949632e-010, -6.7158497169949632e-010,
             -6.7158497169949632e-010, -6.7158497169949632e-010,
             -6.7158497169949632e-010, -6.7158497169949632e-010 ]
         index: [ 0, 1, 2, 3, 4, 5, 6, 7, 8, 9, 11, 12, 13, 14, 15, 16,
             18, 19, 20, 21, 22, 23, 24, 25, 26, 61, 62, 63, 64, 65, 66,
             67, 68, 69, 70, 71, 72, 73, 74, 75, 76, 77, 78, 79, 81, 82,
             83, 84, 85, 86 ]
      -
         sv_count: 35
         rho: 1.4505461435576006e+001
         alpha: [ 4.0639293937793760e-008, 4.0639293937793760e-008,
             8.1278587875587235e-009, 4.0639293937793760e-008,
             4.0639293937793760e-008, 4.0639293937793760e-008,
             4.0639293937793760e-008, 4.0639293937793760e-008,
             4.0639293937793760e-008, 4.0639293937793760e-008,
             4.0639293937793760e-008, 4.0639293937793760e-008,
             4.0639293937793760e-008, 4.0639293937793760e-008,
             4.0639293937793760e-008, 4.0639293937793760e-008,
             4.0639293937793760e-008, -4.0639293937793760e-008,
             -1.6942259409261624e-008, -3.3075974732365005e-008,
             -4.0639293937793760e-008, -4.0639293937793760e-008,
             -4.0639293937793760e-008, -4.0639293937793760e-008,
             -4.0639293937793760e-008, -1.9735397507070651e-008,
             -4.0639293937793760e-008, -4.0639293937793760e-008,
             -1.9652815014448947e-008, -4.0639293937793760e-008,
             -4.0639293937793760e-008, -4.0639293937793760e-008,
             -4.0639293937793760e-008, -4.0639293937793760e-008,
             -4.0639293937793760e-008 ]
         index: [ 32, 33, 34, 35, 37, 38, 39, 41, 42, 43, 46, 53, 54, 55,
             56, 58, 60, 62, 64, 66, 67, 70, 73, 74, 75, 77, 78, 79, 80,
             81, 82, 83, 84, 85, 86 ]
