%YAML:1.0
my_svm: !!opencv-ml-svm
   svm_type: NU_SVC
   kernel: { type:POLY, degree:3., gamma:3.1250000000000000e-002,
       coef0:0. }
   nu: 2.0000000000000001e-001
   term_criteria: { epsilon:1.1920928955078125e-007, iterations:1000 }
   var_all: 5
   var_count: 5
   class_count: 2
   class_labels: !!opencv-matrix
      rows: 1
      cols: 2
      dt: i
      data: [ 0, 2 ]
   sv_total: 82
   support_vectors:
      - [ 74., 85., 77., 107., 8. ]
      - [ 78., 84., 79., 104., 5. ]
      - [ 82., 71., 79., 104., 8. ]
      - [ 78., 96., 79., 123., 17. ]
      - [ 68., 103., 79., 124., 24. ]
      - [ 99., 96., 91., 72., 5. ]
      - [ 66., 75., 65., 95., 10. ]
      - [ 77., 96., 73., 89., 23. ]
      - [ 62., 77., 67., 89., 10. ]
      - [ 126., 141., 83., 88., 58. ]
      - [ 122., 139., 83., 91., 56. ]
      - [ 120., 134., 84., 82., 50. ]
      - [ 119., 129., 87., 84., 42. ]
      - [ 132., 150., 86., 93., 64. ]
      - [ 109., 123., 91., 78., 32. ]
      - [ 126., 104., 78., 65., 26. ]
      - [ 126., 104., 77., 66., 27. ]
      - [ 121., 100., 75., 62., 25. ]
      - [ 126., 106., 77., 67., 29. ]
      - [ 128., 105., 78., 66., 27. ]
      - [ 110., 101., 85., 76., 16. ]
      - [ 99., 94., 71., 81., 23. ]
      - [ 114., 99., 77., 80., 22. ]
      - [ 115., 98., 76., 80., 22. ]
      - [ 103., 99., 85., 74., 14. ]
      - [ 118., 109., 83., 78., 26. ]
      - [ 98., 93., 82., 78., 11. ]
      - [ 108., 97., 83., 83., 14. ]
      - [ 80., 82., 80., 97., 2. ]
      - [ 77., 82., 83., 99., 1. ]
      - [ 82., 84., 78., 101., 6. ]
      - [ 73., 80., 83., 97., 3. ]
      - [ 71., 54., 79., 101., 25. ]
      - [ 70., 53., 83., 97., 30. ]
      - [ 73., 51., 78., 104., 27. ]
      - [ 81., 59., 79., 104., 20. ]
      - [ 65., 51., 87., 93., 36. ]
      - [ 72., 56., 87., 89., 31. ]
      - [ 70., 55., 89., 91., 34. ]
      - [ 72., 75., 104., 70., 29. ]
      - [ 72., 77., 99., 67., 22. ]
      - [ 70., 73., 95., 64., 22. ]
      - [ 122., 108., 62., 70., 46. ]
      - [ 121., 111., 65., 66., 46. ]
      - [ 121., 105., 64., 66., 41. ]
      - [ 127., 118., 69., 111., 49. ]
      - [ 96., 121., 80., 96., 41. ]
      - [ 106., 123., 82., 94., 41. ]
      - [ 72., 93., 76., 94., 17. ]
      - [ 92., 86., 67., 85., 19. ]
      - [ 105., 119., 74., 93., 45. ]
      - [ 105., 120., 77., 94., 43. ]
      - [ 112., 114., 77., 88., 37. ]
      - [ 109., 113., 76., 92., 37. ]
      - [ 115., 111., 72., 106., 39. ]
      - [ 103., 104., 83., 86., 21. ]
      - [ 126., 117., 73., 114., 44. ]
      - [ 100., 108., 81., 73., 27. ]
      - [ 78., 92., 70., 85., 22. ]
      - [ 96., 83., 65., 92., 18. ]
      - [ 80., 89., 87., 75., 2. ]
      - [ 79., 93., 78., 73., 15. ]
      - [ 83., 71., 67., 93., 4. ]
      - [ 92., 75., 66., 90., 9. ]
      - [ 58., 65., 79., 73., 14. ]
      - [ 91., 90., 68., 73., 22. ]
      - [ 90., 92., 71., 71., 21. ]
      - [ 76., 78., 73., 69., 5. ]
      - [ 92., 115., 76., 86., 39. ]
      - [ 66., 87., 81., 84., 6. ]
      - [ 99., 91., 78., 82., 13. ]
      - [ 89., 89., 73., 82., 16. ]
      - [ 87., 80., 66., 78., 14. ]
      - [ 79., 94., 76., 76., 18. ]
      - [ 78., 79., 76., 71., 3. ]
      - [ 81., 80., 80., 70., 0. ]
      - [ 80., 82., 88., 81., 6. ]
      - [ 86., 84., 76., 74., 8. ]
      - [ 69., 88., 80., 71., 8. ]
      - [ 101., 122., 88., 74., 34. ]
      - [ 99., 120., 84., 77., 36. ]
      - [ 76., 83., 90., 73., 7. ]
   decision_functions:
      -
         sv_count: 82
         rho: 3.3967416806920512e+000
         alpha: [ 3.0682901136432292e-009, 3.0682901136432292e-009,
             3.0682901136432292e-009, 4.6282854133023273e-010,
             3.0682901136432292e-009, 3.0682901136432292e-009,
             3.0682901136432292e-009, 3.0682901136432292e-009,
             3.0682901136432292e-009, 3.0682901136432292e-009,
             3.0682901136432292e-009, 3.0682901136432292e-009,
             3.0682901136432292e-009, 3.0682901136432292e-009,
             3.0682901136432292e-009, 3.0682901136432292e-009,
             3.0682901136432292e-009, 3.0682901136432292e-009,
             3.0682901136432292e-009, 3.0682901136432292e-009,
             3.0682901136432292e-009, 3.0682901136432292e-009,
             3.0682901136432292e-009, 3.0682901136432292e-009,
             3.0682901136432292e-009, 7.5668042116740003e-010,
             3.0682901136432292e-009, 2.0682186526477933e-009,
             3.0682901136432292e-009, 3.0682901136432292e-009,
             3.0682901136432292e-009, 3.0682901136432292e-009,
             3.0682901136432292e-009, 3.0682901136432292e-009,
             3.0682901136432292e-009, 3.0682901136432292e-009,
             3.0682901136432292e-009, 3.0682901136432292e-009,
             3.0682901136432292e-009, 8.7391509862129956e-011,
             3.0682901136432292e-009, 3.0682901136432292e-009,
             -3.0682901136432292e-009, -3.0682901136432292e-009,
             -3.0682901136432292e-009, -3.0682901136432292e-009,
             -3.0682901136432292e-009, -3.0682901136432292e-009,
             -3.0682901136432292e-009, -3.0682901136432292e-009,
             -3.0682901136432292e-009, -3.0682901136432292e-009,
             -3.0682901136432292e-009, -3.0682901136432292e-009,
             -3.0682901136432292e-009, -3.0682901136432292e-009,
             -3.0682901136432292e-009, -3.0682901136432292e-009,
             -3.0682901136432292e-009, -3.0682901136432292e-009,
             -3.0682901136432292e-009, -3.0682901136432292e-009,
             -3.0682901136432292e-009, -3.0682901136432292e-009,
             -3.0682901136432292e-009, -3.0682901136432292e-009,
             -3.0682901136432292e-009, -3.0682901136432797e-010,
             -3.0682901136432292e-009, -3.0682901136432292e-009,
             -3.0682901136432292e-009, -3.0682901136432292e-009,
             -3.0682901136432292e-009, -3.0682901136432292e-009,
             -3.0682901136432292e-009, -3.0682901136432292e-009,
             -3.0682901136432292e-009, -3.0682901136432292e-009,
             -3.0682901136432292e-009, -3.0682901136432292e-009,
             -3.0682901136432292e-009, -3.0682901136432292e-009 ]
         index: [ 0, 1, 2, 3, 4, 5, 6, 7, 8, 9, 10, 11, 12, 13, 14, 15,
             16, 17, 18, 19, 20, 21, 22, 23, 24, 25, 26, 27, 28, 29, 30,
             31, 32, 33, 34, 35, 36, 37, 38, 39, 40, 41, 42, 43, 44, 45,
             46, 47, 48, 49, 50, 51, 52, 53, 54, 55, 56, 57, 58, 59, 60,
             61, 62, 63, 64, 65, 66, 67, 68, 69, 70, 71, 72, 73, 74, 75,
             76, 77, 78, 79, 80, 81 ]
