%YAML:1.0
my_svm: !!opencv-ml-svm
   svm_type: NU_SVC
   kernel: { type:POLY, degree:3., gamma:3.1250000000000000e-002,
       coef0:0. }
   nu: 2.0000000000000001e-001
   term_criteria: { epsilon:1.1920928955078125e-007, iterations:1000 }
   var_all: 5
   var_count: 5
   class_count: 2
   class_labels: !!opencv-matrix
      rows: 1
      cols: 2
      dt: i
      data: [ 0, 1 ]
   sv_total: 73
   support_vectors:
      - [ 98., 90., 84., 114., 6. ]
      - [ 94., 93., 83., 116., 10. ]
      - [ 93., 95., 84., 112., 11. ]
      - [ 74., 85., 77., 107., 8. ]
      - [ 78., 84., 79., 104., 5. ]
      - [ 131., 103., 99., 85., 4. ]
      - [ 129., 101., 99., 80., 2. ]
      - [ 134., 105., 101., 86., 4. ]
      - [ 121., 84., 94., 81., -10. ]
      - [ 121., 92., 86., 80., 6. ]
      - [ 110., 74., 86., 74., -12. ]
      - [ 107., 103., 91., 78., 12. ]
      - [ 109., 101., 96., 82., 5. ]
      - [ 110., 101., 101., 85., 0. ]
      - [ 110., 102., 101., 85., 1. ]
      - [ 117., 121., 101., 85., 20. ]
      - [ 136., 97., 102., 87., -5. ]
      - [ 127., 92., 100., 83., -8. ]
      - [ 100., 88., 100., 79., -12. ]
      - [ 103., 89., 93., 72., -4. ]
      - [ 123., 128., 116., 82., 12. ]
      - [ 105., 115., 97., 90., 18. ]
      - [ 93., 104., 96., 89., 8. ]
      - [ 105., 113., 97., 97., 16. ]
      - [ 102., 113., 99., 90., 14. ]
      - [ 131., 120., 120., 97., 0. ]
      - [ 131., 103., 104., 84., -1. ]
      - [ 130., 108., 114., 104., -6. ]
      - [ 143., 113., 103., 88., 10. ]
      - [ 132., 124., 113., 94., 11. ]
      - [ 77., 96., 73., 89., 23. ]
      - [ 62., 77., 67., 89., 10. ]
      - [ 103., 99., 85., 74., 14. ]
      - [ 118., 109., 83., 78., 26. ]
      - [ 98., 93., 82., 78., 11. ]
      - [ 112., 121., 110., 87., 11. ]
      - [ 125., 125., 108., 79., 17. ]
      - [ 131., 118., 92., 81., 26. ]
      - [ 112., 120., 132., 97., -12. ]
      - [ 120., 124., 132., 89., -8. ]
      - [ 116., 120., 132., 83., -12. ]
      - [ 125., 123., 109., 99., 14. ]
      - [ 72., 75., 104., 70., -29. ]
      - [ 70., 73., 95., 64., -22. ]
      - [ 98., 99., 63., 92., 36. ]
      - [ 97., 95., 60., 97., 35. ]
      - [ 92., 93., 59., 95., 34. ]
      - [ 79., 88., 82., 75., 6. ]
      - [ 130., 132., 112., 100., 20. ]
      - [ 107., 110., 106., 100., 4. ]
      - [ 110., 112., 102., 101., 10. ]
      - [ 107., 110., 110., 110., 0. ]
      - [ 107., 109., 107., 107., 2. ]
      - [ 110., 112., 107., 108., 5. ]
      - [ 109., 108., 108., 106., 0. ]
      - [ 109., 110., 107., 109., 3. ]
      - [ 70., 66., 53., 69., 13. ]
      - [ 82., 69., 55., 72., 14. ]
      - [ 82., 68., 53., 75., 15. ]
      - [ 108., 92., 96., 58., -4. ]
      - [ 109., 92., 98., 60., -6. ]
      - [ 117., 100., 95., 81., 5. ]
      - [ 119., 95., 90., 84., 5. ]
      - [ 136., 91., 93., 77., -2. ]
      - [ 134., 92., 92., 77., 0. ]
      - [ 144., 141., 119., 95., 22. ]
      - [ 133., 131., 123., 94., 8. ]
      - [ 125., 121., 121., 88., 0. ]
      - [ 111., 118., 111., 73., 7. ]
      - [ 133., 135., 109., 85., 26. ]
      - [ 97., 98., 83., 59., 15. ]
      - [ 83., 64., 61., 58., 3. ]
      - [ 127., 110., 87., 74., 23. ]
   decision_functions:
      -
         sv_count: 73
         rho: 5.0318975510650930e+000
         alpha: [ 1.8763160256393377e-006, 2.3781485752087888e-006,
             3.5789581264493788e-006, 2.2561807839487100e-007,
             3.5789581264493788e-006, 3.5789581264493788e-006,
             3.5789581264493788e-006, 1.4180954816304513e-006,
             4.9268509624865796e-008, 3.5789581264493788e-006,
             5.8811305209774320e-007, 3.5789581264493788e-006,
             3.5789581264493788e-006, 3.5789581264493788e-006,
             1.4315832505797591e-006, 3.5789581264493788e-006,
             2.6766020727000480e-006, 2.1802374624428025e-007,
             1.5556866770477814e-008, 4.3305181458198143e-008,
             3.0618969983542031e-006, 3.5789581264493788e-006,
             3.9368118735869329e-007, 1.7582324680278443e-006,
             1.0837867245480600e-007, 3.0908789285208085e-006,
             1.2659337577499775e-008, 4.2470325456964287e-007,
             1.9940010091720525e-007, 4.0121693772675384e-007,
             3.5789581264493788e-006, 8.9805048424480669e-007,
             1.2965979196827983e-006, 3.5789581264493788e-006,
             4.6823647299888421e-008, 8.6426472513612960e-007,
             1.8394294930323580e-006, 3.4177837213449502e-006,
             4.4511983575624794e-007, 1.3695628835924732e-006,
             3.4747120999111443e-006, 1.7860654749236795e-006,
             9.2786058868878412e-007, 4.8321491560400944e-007,
             -1.0626234048242914e-007, -3.0939840535967775e-006,
             -3.4915724485282523e-006, -5.7590455568315544e-007,
             -8.7510674393921623e-008, -3.5789581264493788e-006,
             -2.2491162554005259e-006, -3.5789581264493788e-006,
             -3.5789581264493788e-006, -3.4086550707093705e-006,
             -3.5789581264493788e-006, -3.5789581264493788e-006,
             -3.4667704007856694e-006, -4.1195672481232963e-008,
             -7.0125433440558776e-007, -3.5789581264493788e-006,
             -3.5789581264493788e-006, -2.3543322217130001e-006,
             -3.5789581264493788e-006, -3.5114717851161509e-006,
             -3.5789581264493788e-006, -3.5789581264493788e-006,
             -3.5789581264493788e-006, -3.5789581264493788e-006,
             -2.4847888830343162e-006, -3.5789581264493788e-006,
             -3.4815143061880130e-006, -3.5766898363821253e-006,
             -1.0111835497236445e-006 ]
         index: [ 0, 1, 2, 3, 4, 5, 6, 7, 8, 9, 10, 11, 12, 13, 14, 15,
             16, 17, 18, 19, 20, 21, 22, 23, 24, 25, 26, 27, 28, 29, 30,
             31, 32, 33, 34, 35, 36, 37, 38, 39, 40, 41, 42, 43, 44, 45,
             46, 47, 48, 49, 50, 51, 52, 53, 54, 55, 56, 57, 58, 59, 60,
             61, 62, 63, 64, 65, 66, 67, 68, 69, 70, 71, 72 ]
