%YAML:1.0
my_svm: !!opencv-ml-svm
   svm_type: C_SVC
   kernel: { type:POLY, degree:3., gamma:3.1250000000000000e-002,
       coef0:0. }
   C: 1.
   term_criteria: { epsilon:1.1920928955078125e-007, iterations:1000 }
   var_all: 4
   var_count: 4
   class_count: 3
   class_labels: !!opencv-matrix
      rows: 1
      cols: 3
      dt: i
      data: [ 0, 1, 2 ]
   sv_total: 31
   support_vectors:
      - [ 568., 700., 750., 830. ]
      - [ 123., 43., 252., 213. ]
      - [ 129., 41., 248., 170. ]
      - [ 124., 39., 241., 180. ]
      - [ 82., 34., 235., 192. ]
      - [ 130., 48., 251., 194. ]
      - [ 94., 32., 234., 193. ]
      - [ 85., 35., 230., 208. ]
      - [ 138., 71., 231., 231. ]
      - [ 142., 73., 223., 222. ]
      - [ 128., 54., 222., 191. ]
      - [ 127., 46., 222., 190. ]
      - [ 116., 50., 222., 223. ]
      - [ 118., 50., 249., 214. ]
      - [ 117., 42., 219., 210. ]
      - [ 131., 49., 226., 208. ]
      - [ 113., 29., 229., 194. ]
      - [ 110., 30., 238., 217. ]
      - [ 128., 40., 235., 218. ]
      - [ 110., 41., 235., 223. ]
      - [ 131., 53., 232., 200. ]
      - [ 129., 53., 230., 196. ]
      - [ 115., 23., 229., 196. ]
      - [ 133., 63., 222., 213. ]
      - [ 137., 63., 219., 218. ]
      - [ 123., 55., 223., 226. ]
      - [ 85., 10., 216., 169. ]
      - [ 83., 9., 215., 178. ]
      - [ 78., 12., 212., 169. ]
      - [ 109., 25., 213., 198. ]
      - [ 122., 49., 224., 193. ]
   decision_functions:
      -
         sv_count: 23
         rho: 3.9205652264182888e+001
         alpha: [ 3.9861961791833114e-013, 1.0059863827425692e-007,
             6.4378729940814726e-009, 3.1262928690467973e-009,
             1.0715127873204069e-008, 5.8247278035177379e-009,
             1.2444873772161203e-008, 2.3206478766670590e-008,
             1.9360288692909229e-008, 5.5558800925612748e-009,
             7.9726436704141965e-009, 4.9102385615177350e-008,
             9.1538698537727140e-009, -1.0781380056087460e-007,
             -6.6541822422601014e-009, -2.7366378942801887e-009,
             -4.3298844867875986e-008, -1.9096051206317184e-009,
             -2.1880793958445581e-009, -1.4373591509888505e-008,
             -4.5899569947210355e-009, -6.1047639871158410e-008,
             -8.8871404398563351e-009 ]
         index: [ 0, 1, 2, 3, 4, 5, 6, 7, 8, 9, 10, 11, 12, 13, 14, 15,
             16, 17, 18, 19, 20, 21, 22 ]
      -
         sv_count: 15
         rho: 6.9918638457630045e-001
         alpha: [ 1.7619664158552131e-013, 1.9384119288446692e-009,
             6.1252596982557469e-010, 1.5824918016313167e-009,
             6.3817195532836907e-009, 6.4770274467049115e-009,
             1.2198443873593942e-008, 2.2457087820398220e-008,
             -9.1252407098446864e-009, -1.2223388426878737e-009,
             -2.2821875142176698e-008, -2.6397728350559288e-009,
             -8.1569404190049689e-010, -1.4456560618869929e-010,
             -1.4878397413069528e-008 ]
         index: [ 0, 4, 7, 8, 9, 10, 11, 12, 23, 24, 25, 26, 27, 28, 30 ]
      -
         sv_count: 5
         rho: 4.2631294934140293e+001
         alpha: [ 1.0788574653759104e-006, -4.5946255467821532e-007,
             -7.2962466041239615e-010, -4.7015349075511348e-007,
             -1.4851179528216925e-007 ]
         index: [ 14, 25, 27, 29, 30 ]
