%YAML:1.0
my_svm: !!opencv-ml-svm
   svm_type: NU_SVC
   kernel: { type:POLY, degree:3., gamma:3.1250000000000000e-002,
       coef0:0. }
   nu: 4.0000000000000002e-001
   term_criteria: { epsilon:1.1920928955078125e-007, iterations:1000 }
   var_all: 4
   var_count: 4
   class_count: 2
   class_labels: !!opencv-matrix
      rows: 1
      cols: 2
      dt: i
      data: [ 0, 2 ]
   sv_total: 197
   support_vectors:
      - [ 70., 38., 129., 142. ]
      - [ 63., 35., 137., 146. ]
      - [ 58., 36., 141., 148. ]
      - [ 79., 39., 137., 142. ]
      - [ 77., 44., 138., 146. ]
      - [ 86., 57., 135., 140. ]
      - [ 76., 60., 141., 145. ]
      - [ 59., 40., 142., 148. ]
      - [ 58., 41., 134., 147. ]
      - [ 69., 46., 127., 136. ]
      - [ 61., 42., 130., 138. ]
      - [ 68., 47., 139., 141. ]
      - [ 63., 47., 133., 141. ]
      - [ 64., 47., 137., 143. ]
      - [ 61., 43., 141., 148. ]
      - [ 55., 39., 138., 146. ]
      - [ 49., 37., 140., 144. ]
      - [ 53., 45., 140., 143. ]
      - [ 76., 53., 137., 149. ]
      - [ 76., 55., 132., 143. ]
      - [ 80., 57., 137., 141. ]
      - [ 76., 52., 133., 146. ]
      - [ 61., 42., 130., 138. ]
      - [ 68., 47., 139., 141. ]
      - [ 63., 47., 133., 141. ]
      - [ 64., 47., 137., 143. ]
      - [ 61., 43., 141., 148. ]
      - [ 55., 39., 138., 146. ]
      - [ 53., 45., 140., 143. ]
      - [ 44., 59., 143., 150. ]
      - [ 76., 53., 137., 149. ]
      - [ 76., 55., 132., 143. ]
      - [ 80., 57., 137., 141. ]
      - [ 76., 52., 133., 146. ]
      - [ 70., 38., 129., 142. ]
      - [ 63., 35., 137., 146. ]
      - [ 58., 36., 141., 148. ]
      - [ 79., 39., 137., 142. ]
      - [ 77., 44., 138., 146. ]
      - [ 86., 57., 135., 140. ]
      - [ 59., 40., 142., 148. ]
      - [ 58., 41., 134., 147. ]
      - [ 40., 30., 126., 134. ]
      - [ 41., 30., 124., 139. ]
      - [ 43., 33., 130., 144. ]
      - [ 53., 34., 126., 138. ]
      - [ 54., 37., 134., 138. ]
      - [ 53., 60., 151., 141. ]
      - [ 53., 52., 135., 145. ]
      - [ 54., 54., 139., 143. ]
      - [ 52., 46., 132., 142. ]
      - [ 58., 54., 135., 145. ]
      - [ 54., 48., 135., 140. ]
      - [ 66., 40., 133., 151. ]
      - [ 63., 41., 135., 148. ]
      - [ 61., 39., 132., 148. ]
      - [ 69., 42., 132., 145. ]
      - [ 70., 51., 133., 153. ]
      - [ 68., 48., 149., 137. ]
      - [ 67., 47., 150., 137. ]
      - [ 51., 49., 137., 152. ]
      - [ 55., 52., 137., 151. ]
      - [ 57., 57., 131., 150. ]
      - [ 55., 52., 135., 151. ]
      - [ 61., 61., 134., 155. ]
      - [ 64., 68., 136., 156. ]
      - [ 69., 72., 131., 161. ]
      - [ 59., 56., 135., 151. ]
      - [ 50., 53., 132., 154. ]
      - [ 65., 59., 127., 148. ]
      - [ 62., 57., 128., 152. ]
      - [ 54., 56., 128., 148. ]
      - [ 56., 57., 129., 145. ]
      - [ 55., 58., 130., 150. ]
      - [ 56., 60., 130., 155. ]
      - [ 56., 61., 126., 153. ]
      - [ 54., 63., 128., 163. ]
      - [ 59., 74., 129., 156. ]
      - [ 38., 42., 134., 162. ]
      - [ 41., 51., 133., 156. ]
      - [ 43., 42., 134., 160. ]
      - [ 37., 47., 134., 160. ]
      - [ 39., 43., 135., 164. ]
      - [ 47., 64., 132., 161. ]
      - [ 36., 53., 134., 161. ]
      - [ 55., 55., 136., 156. ]
      - [ 52., 55., 137., 152. ]
      - [ 38., 52., 132., 148. ]
      - [ 48., 60., 137., 154. ]
      - [ 44., 57., 132., 152. ]
      - [ 45., 57., 134., 148. ]
      - [ 32., 42., 133., 155. ]
      - [ 37., 37., 130., 151. ]
      - [ 31., 35., 123., 138. ]
      - [ 35., 42., 130., 153. ]
      - [ 34., 38., 125., 135. ]
      - [ 38., 51., 131., 130. ]
      - [ 43., 46., 128., 150. ]
      - [ 38., 39., 122., 147. ]
      - [ 72., 71., 124., 143. ]
      - [ 72., 74., 131., 143. ]
      - [ 76., 73., 130., 141. ]
      - [ 55., 52., 103., 142. ]
      - [ 63., 51., 115., 138. ]
      - [ 65., 55., 111., 137. ]
      - [ 80., 63., 128., 149. ]
      - [ 71., 68., 133., 124. ]
      - [ 58., 67., 112., 142. ]
      - [ 54., 57., 126., 140. ]
      - [ 72., 64., 126., 141. ]
      - [ 71., 63., 112., 144. ]
      - [ 82., 74., 120., 138. ]
      - [ 64., 66., 129., 155. ]
      - [ 36., 54., 108., 145. ]
      - [ 38., 51., 106., 140. ]
      - [ 61., 53., 104., 137. ]
      - [ 46., 57., 114., 132. ]
      - [ 41., 48., 119., 139. ]
      - [ 38., 42., 115., 133. ]
      - [ 35., 42., 112., 130. ]
      - [ 51., 40., 105., 134. ]
      - [ 41., 43., 112., 139. ]
      - [ 33., 42., 109., 139. ]
      - [ 58., 38., 111., 147. ]
      - [ 54., 31., 111., 135. ]
      - [ 55., 69., 121., 138. ]
      - [ 59., 74., 120., 133. ]
      - [ 55., 73., 118., 128. ]
      - [ 75., 75., 115., 135. ]
      - [ 62., 56., 105., 147. ]
      - [ 62., 56., 109., 137. ]
      - [ 42., 43., 108., 139. ]
      - [ 34., 45., 121., 146. ]
      - [ 47., 60., 106., 143. ]
      - [ 51., 40., 114., 137. ]
      - [ 37., 46., 110., 144. ]
      - [ 80., 65., 129., 150. ]
      - [ 66., 54., 113., 139. ]
      - [ 76., 69., 134., 143. ]
      - [ 47., 60., 106., 143. ]
      - [ 37., 46., 110., 144. ]
      - [ 62., 56., 105., 147. ]
      - [ 62., 56., 109., 137. ]
      - [ 42., 43., 108., 139. ]
      - [ 36., 54., 108., 145. ]
      - [ 38., 51., 106., 140. ]
      - [ 61., 53., 104., 137. ]
      - [ 46., 57., 114., 132. ]
      - [ 38., 42., 115., 133. ]
      - [ 35., 42., 112., 130. ]
      - [ 51., 40., 105., 134. ]
      - [ 41., 43., 112., 139. ]
      - [ 33., 42., 109., 139. ]
      - [ 58., 38., 111., 147. ]
      - [ 55., 52., 103., 142. ]
      - [ 63., 51., 115., 138. ]
      - [ 65., 55., 111., 137. ]
      - [ 58., 67., 112., 142. ]
      - [ 71., 63., 112., 144. ]
      - [ 62., 71., 116., 137. ]
      - [ 68., 70., 117., 134. ]
      - [ 63., 70., 117., 138. ]
      - [ 55., 71., 113., 147. ]
      - [ 52., 70., 113., 142. ]
      - [ 57., 70., 107., 139. ]
      - [ 55., 63., 113., 136. ]
      - [ 68., 74., 116., 140. ]
      - [ 67., 70., 119., 141. ]
      - [ 66., 68., 118., 134. ]
      - [ 57., 70., 115., 137. ]
      - [ 44., 55., 117., 136. ]
      - [ 47., 56., 117., 135. ]
      - [ 43., 60., 117., 127. ]
      - [ 43., 44., 120., 127. ]
      - [ 35., 41., 107., 143. ]
      - [ 41., 45., 116., 133. ]
      - [ 31., 42., 104., 149. ]
      - [ 57., 65., 101., 137. ]
      - [ 48., 65., 112., 141. ]
      - [ 40., 40., 121., 128. ]
      - [ 40., 45., 109., 135. ]
      - [ 45., 41., 112., 133. ]
      - [ 42., 42., 109., 131. ]
      - [ 47., 46., 105., 135. ]
      - [ 44., 55., 117., 136. ]
      - [ 47., 56., 117., 135. ]
      - [ 43., 60., 117., 127. ]
      - [ 35., 41., 107., 143. ]
      - [ 41., 45., 116., 133. ]
      - [ 31., 42., 104., 149. ]
      - [ 57., 65., 101., 137. ]
      - [ 48., 65., 112., 141. ]
      - [ 55., 77., 99., 149. ]
      - [ 48., 74., 106., 154. ]
      - [ 60., 72., 117., 139. ]
      - [ 67., 68., 115., 143. ]
      - [ 80., 71., 117., 147. ]
   decision_functions:
      -
         sv_count: 197
         rho: 3.1935555040138581e+000
         alpha: [ 5.8149006573091507e-011, 5.8149006573091507e-011,
             5.8149006573091507e-011, 5.8149006573091507e-011,
             5.8149006573091507e-011, 5.8149006573091507e-011,
             5.3805334336281639e-011, 5.8149006573091507e-011,
             5.8149006573091507e-011, 5.8149006573091507e-011,
             5.8149006573091507e-011, 5.8149006573091507e-011,
             5.8149006573091507e-011, 5.8149006573091507e-011,
             5.8149006573091507e-011, 5.8149006573091507e-011,
             5.8149006573091507e-011, 5.8149006573091507e-011,
             5.8149006573091507e-011, 5.8149006573091507e-011,
             5.8149006573091507e-011, 5.8149006573091507e-011,
             5.8149006573091507e-011, 5.8149006573091507e-011,
             5.8149006573091507e-011, 5.8149006573091507e-011,
             5.8149006573091507e-011, 5.8149006573091507e-011,
             5.8149006573091507e-011, 5.8149006573091507e-011,
             5.8149006573091507e-011, 5.8149006573091507e-011,
             5.8149006573091507e-011, 5.8149006573091507e-011,
             5.8149006573091507e-011, 5.8149006573091507e-011,
             5.8149006573091507e-011, 5.8149006573091507e-011,
             5.8149006573091507e-011, 5.8149006573091507e-011,
             5.8149006573091507e-011, 5.8149006573091507e-011,
             5.8149006573091507e-011, 5.8149006573091507e-011,
             5.8149006573091507e-011, 5.8149006573091507e-011,
             5.8149006573091507e-011, 5.8149006573091507e-011,
             5.8149006573091507e-011, 5.8149006573091507e-011,
             5.8149006573091507e-011, 5.8149006573091507e-011,
             5.8149006573091507e-011, 5.8149006573091507e-011,
             5.8149006573091507e-011, 5.8149006573091507e-011,
             5.8149006573091507e-011, 5.8149006573091507e-011,
             5.8149006573091507e-011, 5.8149006573091507e-011,
             5.8149006573091507e-011, 5.8149006573091507e-011,
             5.8149006573091507e-011, 5.8149006573091507e-011,
             5.8149006573091507e-011, 5.8149006573091507e-011,
             4.3436722368098732e-012, 5.8149006573091507e-011,
             5.8149006573091507e-011, 5.8149006573091507e-011,
             5.8149006573091507e-011, 5.8149006573091507e-011,
             5.8149006573091507e-011, 5.8149006573091507e-011,
             5.8149006573091507e-011, 5.8149006573091507e-011,
             5.8149006573091507e-011, 5.8149006573091507e-011,
             5.8149006573091507e-011, 5.8149006573091507e-011,
             5.8149006573091507e-011, 5.8149006573091507e-011,
             5.8149006573091507e-011, 5.8149006573091507e-011,
             5.8149006573091507e-011, 5.8149006573091507e-011,
             5.8149006573091507e-011, 5.8149006573091507e-011,
             5.8149006573091507e-011, 5.8149006573091507e-011,
             5.8149006573091507e-011, 5.8149006573091507e-011,
             5.8149006573091507e-011, 5.8149006573091507e-011,
             5.8149006573091507e-011, 5.8149006573091507e-011,
             5.8149006573091507e-011, 5.8149006573091507e-011,
             5.8149006573091507e-011, -5.8149006573091507e-011,
             -5.8149006573091507e-011, -5.8149006573091507e-011,
             -5.8149006573091507e-011, -5.8149006573091507e-011,
             -5.8149006573091507e-011, -5.8149006573091507e-011,
             -5.8149006573091507e-011, -5.8149006573091507e-011,
             -5.8149006573091507e-011, -5.8149006573091507e-011,
             -5.8149006573091507e-011, -5.8149006573091507e-011,
             -5.8149006573091507e-011, -5.8149006573091507e-011,
             -5.8149006573091507e-011, -5.8149006573091507e-011,
             -5.8149006573091507e-011, -5.8149006573091507e-011,
             -5.8149006573091507e-011, -5.8149006573091507e-011,
             -5.8149006573091507e-011, -5.8149006573091507e-011,
             -5.8149006573091507e-011, -5.8149006573091507e-011,
             -5.8149006573091507e-011, -5.8149006573091507e-011,
             -5.8149006573091507e-011, -5.8149006573091507e-011,
             -5.8149006573091507e-011, -5.8149006573091507e-011,
             -5.8149006573091507e-011, -5.8149006573091507e-011,
             -5.8149006573091507e-011, -5.8149006573091507e-011,
             -5.8149006573091507e-011, -5.8149006573091507e-011,
             -5.8149006573091507e-011, -5.8149006573091507e-011,
             -5.8149006573091507e-011, -5.8149006573091507e-011,
             -5.8149006573091507e-011, -5.8149006573091507e-011,
             -5.8149006573091507e-011, -5.8149006573091507e-011,
             -5.8149006573091507e-011, -5.8149006573091507e-011,
             -5.8149006573091507e-011, -5.8149006573091507e-011,
             -5.8149006573091507e-011, -5.8149006573091507e-011,
             -5.8149006573091507e-011, -5.8149006573091507e-011,
             -5.8149006573091507e-011, -5.8149006573091507e-011,
             -5.8149006573091507e-011, -5.8149006573091507e-011,
             -5.8149006573091507e-011, -5.8149006573091507e-011,
             -5.8149006573091507e-011, -5.8149006573091507e-011,
             -5.8149006573091507e-011, -5.8149006573091507e-011,
             -5.8149006573091507e-011, -5.8149006573091507e-011,
             -5.8149006573091507e-011, -5.8149006573091507e-011,
             -5.8149006573091507e-011, -5.8149006573091507e-011,
             -5.8149006573091507e-011, -5.8149006573091507e-011,
             -5.8149006573091507e-011, -5.8149006573091507e-011,
             -5.8149006573091507e-011, -5.8149006573091507e-011,
             -5.8149006573091507e-011, -5.8149006573091507e-011,
             -5.8149006573091507e-011, -5.8149006573091507e-011,
             -5.8149006573091507e-011, -5.8149006573091507e-011,
             -5.8149006573091507e-011, -5.8149006573091507e-011,
             -5.8149006573091507e-011, -5.8149006573091507e-011,
             -5.8149006573091507e-011, -5.8149006573091507e-011,
             -5.8149006573091507e-011, -5.8149006573091507e-011,
             -5.8149006573091507e-011, -5.8149006573091507e-011,
             -5.8149006573091507e-011, -5.8149006573091507e-011,
             -5.8149006573091507e-011, -5.8149006573091507e-011,
             -5.8149006573091507e-011, -5.8149006573091507e-011,
             -5.8149006573091507e-011 ]
         index: [ 0, 1, 2, 3, 4, 5, 6, 7, 8, 9, 10, 11, 12, 13, 14, 15,
             16, 17, 18, 19, 20, 21, 22, 23, 24, 25, 26, 27, 28, 29, 30,
             31, 32, 33, 34, 35, 36, 37, 38, 39, 40, 41, 42, 43, 44, 45,
             46, 47, 48, 49, 50, 51, 52, 53, 54, 55, 56, 57, 58, 59, 60,
             61, 62, 63, 64, 65, 66, 67, 68, 69, 70, 71, 72, 73, 74, 75,
             76, 77, 78, 79, 80, 81, 82, 83, 84, 85, 86, 87, 88, 89, 90,
             91, 92, 93, 94, 95, 96, 97, 98, 99, 100, 101, 102, 103, 104,
             105, 106, 107, 108, 109, 110, 111, 112, 113, 114, 115, 116,
             117, 118, 119, 120, 121, 122, 123, 124, 125, 126, 127, 128,
             129, 130, 131, 132, 133, 134, 135, 136, 137, 138, 139, 140,
             141, 142, 143, 144, 145, 146, 147, 148, 149, 150, 151, 152,
             153, 154, 155, 156, 157, 158, 159, 160, 161, 162, 163, 164,
             165, 166, 167, 168, 169, 170, 171, 172, 173, 174, 175, 176,
             177, 178, 179, 180, 181, 182, 183, 184, 185, 186, 187, 188,
             189, 190, 191, 192, 193, 194, 195, 196 ]
